#include <string>
#include <vector>

/* Model data */
static const struct CatboostModel {
    CatboostModel() = default;
    unsigned int FloatFeatureCount = 110;
    unsigned int CatFeatureCount = 0;
    unsigned int BinaryFeatureCount = 577;
    unsigned int TreeCount = 200;
    std::vector<std::vector<float>> FloatFeatureBorders = {
        {},
        {13.5, 19.5, 22.5, 26, 36, 47.5, 65.5, 69.5, 73, 93.5, 137, 234.5, 426.5, 705, 895, 1359, 1534, 1958, 2150.5, 2457.5, 2637.5, 2724, 2984.5, 4097, 6377.5, 6937.5, 9044, 15504, 18100, 19838, 27168, 33963.5, 48311, 53395, 70885, 78364.5, 82033.5, 89419, 111865, 127220, 140246, 146150, 159535, 182035, 210873, 226428, 330590, 339336, 342336, 352636, 373155, 388419, 454496.5, 566558.5, 838531, 876502, 974422.5, 997404.5, 1059596, 1153732, 1612100, 1862100, 2568720.5, 2855236, 2994782, 3083119.5, 3449506.5, 4374605, 6055175.5, 6278596, 7984636},
        {},
        {1.21828111e-06, 3.09802226e-06, 5.84618974e-05, 0.00622284692, 0.128893167, 0.200002, 0.411426604, 0.499999762, 0.959998012},
        {0.00109403254, 0.00200132141, 0.00370430946, 0.00405752752, 0.00463807862, 0.00631904975, 0.0228326917, 0.0284389816, 0.0766722262, 0.0968701988, 0.105977081, 0.121094286, 0.149379149, 0.153306007, 0.171537161, 0.1803945, 0.212268844, 0.214678764, 0.25961867, 0.294601053, 0.372061491, 0.47349447, 0.500488043, 0.580566227, 0.774410963, 1.00998747, 1.0242703},
        {0.00544656534, 1.28228569, 1.66585243},
        {1.16790131e-14, 0.00263759214, 0.003908813, 0.004682431, 0.00878392346, 0.0288212933, 0.0330055431, 0.125729859, 0.154853553, 0.172452927, 0.191040128, 0.433695674, 0.469347835, 0.510212123, 0.623883605, 0.679620743},
        {0.00541836116, 0.00998749956, 0.104540348, 0.50938952},
        {},
        {},
        {0.5},
        {0.5},
        {},
        {},
        {},
        {},
        {2, 71.5, 391.5, 772, 1225, 4666.5, 8766.5, 13804, 66564, 315960},
        {2, 6, 14, 18},
        {0.5},
        {0.5},
        {},
        {2},
        {0.0209583342, 0.928987861},
        {0.5},
        {0.100000001, 0.224999994, 0.291666687, 0.416666687, 0.899999976},
        {0.5},
        {0.5},
        {0.00730937626, 0.00851734355, 0.132853955},
        {},
        {0.860958695, 0.967552423},
        {0.836753428, 0.967552423},
        {},
        {},
        {},
        {},
        {},
        {},
        {},
        {},
        {0.5},
        {1.5, 4.5, 19.5, 44.5, 475.5, 2869, 4048, 10663, 22321, 24961, 26483, 29755.5, 38108, 48311, 48313.5, 49807, 50412, 60873.5, 412160, 507913, 509582, 1375257, 1973160},
        {2, 6, 10, 14, 16.2894745, 17.8298874, 20.0976563, 22.5772667, 23.0615234, 29.6166992, 32.112793, 45.5791016},
        {0.000120304845, 0.00323805376, 0.00630687922, 0.0129657779, 0.014034274, 0.0157435723, 0.023144573, 0.0251543168, 0.0466849804, 0.0607657954, 0.0682605058, 0.0928873122, 0.101716623, 0.127992734, 0.151783288, 0.178206936, 0.185633898, 0.199930161, 0.211962208, 0.230759621, 0.249638885, 0.252176434, 0.319984078, 0.425752103, 1.4314239, 2.20815897},
        {0.5, 1.5},
        {71.5, 1465, 1801, 2115, 2846, 5791, 6081.5, 15617, 39767.5, 41973, 83034, 87570, 95282.5, 98309, 134444.5, 146893.5, 154997, 282762.5, 318005.5, 392366.5, 485206.5, 508606.5, 623910, 997476.5},
        {0.00697117299, 0.0195778515, 0.0249057263, 0.123547308, 0.53257519, 0.548290253, 0.807986736},
        {0.00354784122, 0.117355943, 0.150566459, 0.850021958, 0.921145499, 0.990785778, 1.11143303, 1.86107838, 1.99471974, 2.58407211, 4.66485167, 4.99943733, 5.04881334, 6.03828144, 10.6076756, 24.6408539, 73.9545135, 931.871643},
        {},
        {},
        {},
        {},
        {},
        {},
        {},
        {},
        {},
        {},
        {},
        {},
        {},
        {},
        {},
        {},
        {},
        {0.5},
        {0.5, 1.5, 2.5, 5.5, 7.5, 9.5, 10.5, 11.5, 19.5, 45.5, 114.5, 121, 232, 255.5, 566.5, 626, 821.5, 2024.5, 9235, 51268.5, 64021.5, 85877.5, 95897.5, 127060, 277969, 332934.5, 358341.5, 420876.5, 470531.5, 600659, 793971, 947513.5, 996000, 1254511, 1526027.5, 5251419, 5836360},
        {2, 10, 14, 28.2905273, 30.1196289, 52.3608398, 52.7172852, 55.105957, 55.5922852, 60.2524414, 61.5927734, 63.340332},
        {0.000296017824, 0.0316671729, 0.0452921838, 0.0504722074, 0.0584058315, 0.0673075765, 0.100050561, 0.195088461, 0.200859159, 0.236638308, 0.28747493, 0.296762288, 0.365785539, 0.483886868, 0.677770853, 0.983895183, 1152.83813},
        {0.5},
        {0.5, 1.5, 2.5, 3.5, 8.5, 23.5, 24.5, 40.5, 49.5, 51, 94.5, 133.5, 190.5, 227.5, 299.5, 339.5, 643, 681, 837, 1588, 2048.5, 2115, 2340.5, 2550, 2835.5, 3932, 4099.5, 4489.5, 4750.5, 6269.5, 6610.5, 8115.5, 8967.5, 9581, 17012, 26562.5, 29850.5, 30382, 32439, 46351.5, 55699, 56803, 82830, 85777, 170779, 274509, 296353.5, 624201.5, 899971.5, 1851512.5, 2421085, 2534628.5, 2822642.5, 6001258, 11295576, 11940675},
        {2, 6, 10, 14, 24.0200195, 27, 28.2905273, 28.940918, 30.1196289, 31.4692383, 34.1757813, 36.1474609, 38.2817383, 44.2036133, 44.3901367, 46.5},
        {0.5},
        {0.5},
        {1.5, 9.5, 103, 58078, 82246.5, 85319, 99998, 235302.5, 246318.5, 309575, 920394.5, 1996159, 4937283.5},
        {2, 6, 14, 23.1757813, 43.8217773, 57.6854706},
        {0.0417792499, 0.0438513607, 0.0468885005, 0.0552866831, 0.069735609, 0.139632702, 0.191730708, 0.199855, 0.447139442, 0.805738807, 0.837823093, 0.999672711},
        {0.000533970946, 0.0030977428, 0.0148816444, 0.0648061037, 0.152513742, 0.193550438, 0.455360651, 0.466705739, 0.567011297, 0.657827497},
        {0.5},
        {0.5, 9.5, 13.5, 18, 24.5, 43.5, 45.5, 49, 50.5, 115.5, 136.5, 172, 349, 620, 707.5, 952.5, 1041, 2231.5, 3967, 4924.5, 6794, 19355.5, 29911, 33942, 84694.5, 139777.5, 184659, 292968, 391608.5, 471673, 551615, 563700, 820824.5, 1080781.5, 1131976, 1263084, 1438497.5, 1558874.5, 30125152, 80553856},
        {10, 19.4941406, 20.02034, 20.2986107, 20.8671875, 21.4208984, 24.5449219, 40.0071564, 40.2431641, 40.2832031, 41.1484375, 43.8217773, 44.1041565, 44.378418, 66.8461914, 69.0566406, 73.6009369, 80.2973633, 128.15625, 135.125},
        {0.5},
        {},
        {},
        {},
        {},
        {},
        {},
        {},
        {},
        {},
        {0.5},
        {431, 26233, 53022, 131803, 378590.5, 802490.5, 817917, 2322217, 10514245, 10830846},
        {4, 14, 18, 26.1796875, 29.5073242, 33.5, 47.0083008},
        {0.00303841219, 0.00762964599, 0.0453913733, 0.0836576074, 0.100942992, 0.122306563, 0.193482906, 0.226013273, 0.313505411, 0.364414066, 0.374012947, 0.399003476, 0.406394571, 0.474935114, 0.503119171, 0.507016301, 0.567667246, 0.800546885, 0.830588579},
        {0.5},
        {431, 107527.5, 1211902, 1750233.5, 1755726.5, 10514245},
        {2, 14, 18, 22.6796875},
        {0.5},
        {},
        {},
        {},
        {},
        {},
        {},
        {},
        {},
        {},
        {},
        {0.5, 1.5},
        {0.0934346393, 0.498888254}
    };
    unsigned int TreeDepth[200] = {5, 5, 5, 5, 5, 5, 5, 5, 5, 5, 5, 5, 5, 5, 5, 5, 5, 5, 5, 5, 5, 5, 5, 5, 5, 5, 5, 5, 5, 5, 5, 5, 5, 5, 5, 5, 5, 5, 5, 5, 5, 5, 5, 5, 5, 5, 5, 5, 5, 5, 5, 5, 5, 5, 5, 5, 5, 5, 5, 5, 5, 5, 5, 5, 5, 5, 5, 5, 5, 5, 5, 5, 5, 5, 5, 5, 5, 5, 5, 5, 5, 5, 5, 5, 5, 5, 5, 5, 5, 5, 5, 5, 5, 5, 5, 5, 5, 5, 5, 5, 5, 5, 5, 5, 5, 5, 5, 5, 5, 5, 5, 5, 5, 5, 5, 5, 5, 5, 5, 5, 5, 5, 5, 5, 5, 5, 5, 5, 5, 5, 5, 5, 5, 5, 5, 5, 5, 5, 5, 5, 5, 5, 5, 5, 5, 5, 5, 5, 5, 5, 5, 5, 5, 5, 5, 5, 5, 5, 5, 5, 5, 5, 5, 5, 5, 5, 5, 5, 5, 5, 5, 5, 5, 5, 5, 5, 5, 5, 5, 5, 5, 5, 5, 5, 5, 5, 5, 5, 5, 5, 5, 5, 5, 5, 5, 5, 5, 5, 5, 5};
    unsigned int TreeSplits[1000] = {28, 224, 131, 462, 553, 31, 488, 219, 340, 131, 27, 222, 548, 459, 561, 32, 148, 211, 12, 336, 24, 47, 486, 419, 348, 39, 23, 524, 147, 76, 40, 390, 348, 419, 346, 30, 388, 488, 348, 347, 36, 131, 221, 348, 366, 25, 487, 382, 348, 419, 26, 131, 524, 298, 51, 131, 31, 77, 411, 147, 25, 157, 457, 419, 405, 38, 275, 526, 214, 143, 56, 524, 344, 449, 131, 28, 489, 386, 348, 419, 131, 268, 412, 213, 555, 52, 297, 157, 420, 525, 270, 131, 413, 212, 11, 142, 225, 348, 376, 409, 131, 407, 419, 348, 365, 302, 491, 20, 149, 419, 55, 339, 142, 542, 494, 561, 448, 380, 348, 419, 131, 218, 269, 406, 419, 264, 228, 151, 387, 349, 142, 484, 273, 13, 419, 159, 15, 419, 346, 455, 277, 294, 53, 531, 562, 278, 411, 378, 349, 347, 150, 12, 265, 158, 479, 306, 59, 527, 420, 262, 134, 295, 215, 5, 538, 383, 348, 364, 419, 346, 142, 216, 14, 561, 419, 332, 485, 22, 147, 561, 493, 154, 277, 459, 372, 276, 572, 434, 481, 145, 303, 54, 289, 208, 536, 143, 223, 293, 348, 363, 300, 142, 209, 156, 12, 270, 379, 348, 419, 346, 299, 51, 247, 530, 99, 537, 278, 64, 482, 102, 391, 348, 361, 347, 406, 342, 532, 263, 420, 183, 392, 141, 491, 11, 236, 285, 46, 177, 529, 240, 134, 210, 131, 279, 266, 561, 430, 536, 50, 239, 156, 384, 348, 419, 412, 556, 62, 157, 435, 331, 152, 561, 65, 429, 272, 277, 101, 461, 304, 161, 483, 300, 389, 15, 419, 278, 554, 195, 8, 147, 499, 395, 87, 16, 75, 497, 244, 205, 34, 286, 91, 146, 375, 350, 450, 274, 103, 551, 61, 79, 561, 241, 478, 140, 462, 370, 349, 419, 412, 420, 209, 6, 132, 333, 419, 310, 96, 109, 175, 131, 572, 433, 391, 475, 523, 308, 524, 63, 239, 92, 528, 385, 348, 357, 97, 277, 152, 400, 413, 168, 131, 317, 202, 154, 558, 291, 275, 11, 147, 71, 271, 561, 453, 552, 351, 296, 9, 458, 230, 489, 245, 499, 120, 8, 419, 160, 271, 305, 420, 45, 278, 524, 417, 66, 474, 371, 348, 359, 347, 406, 399, 460, 353, 561, 311, 179, 524, 98, 33, 284, 411, 360, 349, 347, 346, 496, 153, 561, 431, 517, 150, 104, 573, 35, 164, 147, 78, 7, 129, 174, 572, 454, 550, 249, 451, 95, 57, 335, 144, 217, 197, 337, 21, 415, 414, 246, 117, 341, 152, 166, 543, 381, 6, 281, 563, 499, 153, 80, 198, 515, 278, 535, 576, 562, 147, 250, 396, 372, 406, 419, 131, 321, 267, 117, 420, 473, 506, 575, 55, 560, 377, 348, 419, 346, 406, 476, 513, 420, 524, 253, 203, 124, 200, 131, 317, 130, 108, 67, 519, 309, 131, 280, 322, 237, 329, 278, 85, 567, 162, 10, 278, 125, 206, 29, 94, 314, 134, 204, 338, 167, 394, 410, 356, 348, 419, 524, 152, 199, 5, 261, 130, 477, 516, 463, 465, 345, 572, 399, 428, 524, 278, 287, 185, 10, 127, 241, 196, 11, 452, 147, 397, 100, 310, 6, 72, 116, 521, 472, 503, 462, 131, 279, 133, 207, 0, 136, 419, 403, 348, 406, 192, 419, 346, 348, 411, 283, 37, 447, 171, 421, 89, 380, 348, 351, 419, 137, 369, 348, 351, 419, 345, 549, 64, 234, 301, 188, 83, 58, 281, 445, 537, 181, 11, 320, 257, 277, 467, 523, 512, 572, 131, 279, 323, 282, 41, 194, 524, 4, 229, 256, 398, 408, 422, 561, 348, 118, 277, 60, 288, 88, 189, 557, 308, 44, 456, 193, 3, 229, 258, 317, 374, 348, 352, 419, 406, 180, 242, 131, 280, 321, 470, 508, 523, 503, 511, 187, 313, 243, 45, 282, 547, 119, 64, 93, 130, 278, 138, 367, 348, 354, 131, 320, 151, 228, 155, 189, 398, 411, 442, 421, 138, 373, 348, 349, 347, 193, 3, 419, 348, 406, 471, 507, 463, 503, 509, 498, 503, 469, 495, 508, 112, 130, 86, 49, 282, 139, 362, 348, 350, 446, 545, 193, 3, 229, 254, 312, 252, 114, 172, 9, 572, 571, 425, 398, 410, 189, 501, 135, 369, 348, 544, 182, 233, 44, 281, 533, 131, 321, 151, 228, 438, 572, 424, 570, 423, 122, 313, 62, 90, 546, 522, 500, 503, 468, 463, 277, 135, 347, 404, 348, 192, 406, 358, 348, 419, 251, 312, 111, 62, 443, 439, 568, 570, 432, 398, 501, 504, 467, 463, 510, 131, 325, 327, 317, 19, 186, 243, 10, 281, 148, 547, 191, 3, 229, 73, 82, 55, 281, 18, 170, 111, 110, 308, 191, 3, 534, 278, 522, 492, 518, 189, 106, 547, 232, 176, 139, 368, 348, 349, 436, 401, 157, 569, 426, 566, 501, 504, 466, 463, 520, 84, 58, 281, 17, 169, 540, 115, 290, 43, 235, 188, 439, 441, 421, 10, 419, 404, 410, 348, 352, 345, 248, 184, 35, 282, 547, 193, 406, 358, 348, 534, 315, 81, 65, 259, 501, 522, 492, 503, 469, 131, 324, 326, 280, 319, 135, 419, 346, 409, 348, 105, 121, 59, 444, 421, 544, 345, 191, 2, 228, 307, 252, 126, 7, 107, 401, 405, 165, 135, 419, 439, 568, 569, 427, 565, 522, 500, 503, 469, 495, 188, 539, 231, 178, 10, 278, 84, 290, 48, 74, 502, 503, 469, 505, 523, 418, 416, 355, 348, 419, 227, 115, 292, 334, 318, 316, 131, 324, 328, 280, 439, 441, 421, 10, 147, 401, 405, 163, 135, 437, 105, 541, 193, 406, 358, 189, 259, 1, 228, 190, 547, 173, 238, 10, 281, 113, 292, 255, 228, 151, 501, 504, 464, 523, 514, 201, 152, 204, 343, 318, 84, 220, 167, 152, 330, 534, 278, 522, 490, 480, 128, 3, 107, 228, 260, 574, 418, 355, 348, 419, 561, 570, 424, 564, 423, 226, 123, 68, 69, 70, 402, 410, 393, 348, 347, 559, 105, 42, 440, 421};
    unsigned int BorderCounts[110] = {0, 71, 0, 9, 27, 3, 16, 4, 0, 0, 1, 1, 0, 0, 0, 0, 10, 4, 1, 1, 0, 1, 2, 1, 5, 1, 1, 3, 0, 2, 2, 0, 0, 0, 0, 0, 0, 0, 0, 1, 23, 12, 26, 2, 24, 7, 18, 0, 0, 0, 0, 0, 0, 0, 0, 0, 0, 0, 0, 0, 0, 0, 0, 0, 1, 37, 12, 17, 1, 56, 16, 1, 1, 13, 6, 12, 10, 1, 40, 20, 1, 0, 0, 0, 0, 0, 0, 0, 0, 0, 1, 10, 7, 19, 1, 6, 4, 1, 0, 0, 0, 0, 0, 0, 0, 0, 0, 0, 2, 2};
    float Borders[577] = {13.5f, 19.5f, 22.5f, 26.f, 36.f, 47.5f, 65.5f, 69.5f, 73.f, 93.5f, 137.f, 234.5f, 426.5f, 705.f, 895.f, 1359.f, 1534.f, 1958.f, 2150.5f, 2457.5f, 2637.5f, 2724.f, 2984.5f, 4097.f, 6377.5f, 6937.5f, 9044.f, 15504.f, 18100.f, 19838.f, 27168.f, 33963.5f, 48311.f, 53395.f, 70885.f, 78364.5f, 82033.5f, 89419.f, 111865.f, 127220.f, 140246.f, 146150.f, 159535.f, 182035.f, 210873.f, 226428.f, 330590.f, 339336.f, 342336.f, 352636.f, 373155.f, 388419.f, 454496.5f, 566558.5f, 838531.f, 876502.f, 974422.5f, 997404.5f, 1059596.f, 1153732.f, 1612100.f, 1862100.f, 2568720.5f, 2855236.f, 2994782.f, 3083119.5f, 3449506.5f, 4374605.f, 6055175.5f, 6278596.f, 7984636.f, 1.21828111e-06f, 3.09802226e-06f, 5.84618974e-05f, 0.00622284692f, 0.128893167f, 0.200002f, 0.411426604f, 0.499999762f, 0.959998012f, 0.00109403254f, 0.00200132141f, 0.00370430946f, 0.00405752752f, 0.00463807862f, 0.00631904975f, 0.0228326917f, 0.0284389816f, 0.0766722262f, 0.0968701988f, 0.105977081f, 0.121094286f, 0.149379149f, 0.153306007f, 0.171537161f, 0.1803945f, 0.212268844f, 0.214678764f, 0.25961867f, 0.294601053f, 0.372061491f, 0.47349447f, 0.500488043f, 0.580566227f, 0.774410963f, 1.00998747f, 1.0242703f, 0.00544656534f, 1.28228569f, 1.66585243f, 1.16790131e-14f, 0.00263759214f, 0.003908813f, 0.004682431f, 0.00878392346f, 0.0288212933f, 0.0330055431f, 0.125729859f, 0.154853553f, 0.172452927f, 0.191040128f, 0.433695674f, 0.469347835f, 0.510212123f, 0.623883605f, 0.679620743f, 0.00541836116f, 0.00998749956f, 0.104540348f, 0.50938952f, 0.5f, 0.5f, 2.f, 71.5f, 391.5f, 772.f, 1225.f, 4666.5f, 8766.5f, 13804.f, 66564.f, 315960.f, 2.f, 6.f, 14.f, 18.f, 0.5f, 0.5f, 2.f, 0.0209583342f, 0.928987861f, 0.5f, 0.100000001f, 0.224999994f, 0.291666687f, 0.416666687f, 0.899999976f, 0.5f, 0.5f, 0.00730937626f, 0.00851734355f, 0.132853955f, 0.860958695f, 0.967552423f, 0.836753428f, 0.967552423f, 0.5f, 1.5f, 4.5f, 19.5f, 44.5f, 475.5f, 2869.f, 4048.f, 10663.f, 22321.f, 24961.f, 26483.f, 29755.5f, 38108.f, 48311.f, 48313.5f, 49807.f, 50412.f, 60873.5f, 412160.f, 507913.f, 509582.f, 1375257.f, 1973160.f, 2.f, 6.f, 10.f, 14.f, 16.2894745f, 17.8298874f, 20.0976563f, 22.5772667f, 23.0615234f, 29.6166992f, 32.112793f, 45.5791016f, 0.000120304845f, 0.00323805376f, 0.00630687922f, 0.0129657779f, 0.014034274f, 0.0157435723f, 0.023144573f, 0.0251543168f, 0.0466849804f, 0.0607657954f, 0.0682605058f, 0.0928873122f, 0.101716623f, 0.127992734f, 0.151783288f, 0.178206936f, 0.185633898f, 0.199930161f, 0.211962208f, 0.230759621f, 0.249638885f, 0.252176434f, 0.319984078f, 0.425752103f, 1.4314239f, 2.20815897f, 0.5f, 1.5f, 71.5f, 1465.f, 1801.f, 2115.f, 2846.f, 5791.f, 6081.5f, 15617.f, 39767.5f, 41973.f, 83034.f, 87570.f, 95282.5f, 98309.f, 134444.5f, 146893.5f, 154997.f, 282762.5f, 318005.5f, 392366.5f, 485206.5f, 508606.5f, 623910.f, 997476.5f, 0.00697117299f, 0.0195778515f, 0.0249057263f, 0.123547308f, 0.53257519f, 0.548290253f, 0.807986736f, 0.00354784122f, 0.117355943f, 0.150566459f, 0.850021958f, 0.921145499f, 0.990785778f, 1.11143303f, 1.86107838f, 1.99471974f, 2.58407211f, 4.66485167f, 4.99943733f, 5.04881334f, 6.03828144f, 10.6076756f, 24.6408539f, 73.9545135f, 931.871643f, 0.5f, 0.5f, 1.5f, 2.5f, 5.5f, 7.5f, 9.5f, 10.5f, 11.5f, 19.5f, 45.5f, 114.5f, 121.f, 232.f, 255.5f, 566.5f, 626.f, 821.5f, 2024.5f, 9235.f, 51268.5f, 64021.5f, 85877.5f, 95897.5f, 127060.f, 277969.f, 332934.5f, 358341.5f, 420876.5f, 470531.5f, 600659.f, 793971.f, 947513.5f, 996000.f, 1254511.f, 1526027.5f, 5251419.f, 5836360.f, 2.f, 10.f, 14.f, 28.2905273f, 30.1196289f, 52.3608398f, 52.7172852f, 55.105957f, 55.5922852f, 60.2524414f, 61.5927734f, 63.340332f, 0.000296017824f, 0.0316671729f, 0.0452921838f, 0.0504722074f, 0.0584058315f, 0.0673075765f, 0.100050561f, 0.195088461f, 0.200859159f, 0.236638308f, 0.28747493f, 0.296762288f, 0.365785539f, 0.483886868f, 0.677770853f, 0.983895183f, 1152.83813f, 0.5f, 0.5f, 1.5f, 2.5f, 3.5f, 8.5f, 23.5f, 24.5f, 40.5f, 49.5f, 51.f, 94.5f, 133.5f, 190.5f, 227.5f, 299.5f, 339.5f, 643.f, 681.f, 837.f, 1588.f, 2048.5f, 2115.f, 2340.5f, 2550.f, 2835.5f, 3932.f, 4099.5f, 4489.5f, 4750.5f, 6269.5f, 6610.5f, 8115.5f, 8967.5f, 9581.f, 17012.f, 26562.5f, 29850.5f, 30382.f, 32439.f, 46351.5f, 55699.f, 56803.f, 82830.f, 85777.f, 170779.f, 274509.f, 296353.5f, 624201.5f, 899971.5f, 1851512.5f, 2421085.f, 2534628.5f, 2822642.5f, 6001258.f, 11295576.f, 11940675.f, 2.f, 6.f, 10.f, 14.f, 24.0200195f, 27.f, 28.2905273f, 28.940918f, 30.1196289f, 31.4692383f, 34.1757813f, 36.1474609f, 38.2817383f, 44.2036133f, 44.3901367f, 46.5f, 0.5f, 0.5f, 1.5f, 9.5f, 103.f, 58078.f, 82246.5f, 85319.f, 99998.f, 235302.5f, 246318.5f, 309575.f, 920394.5f, 1996159.f, 4937283.5f, 2.f, 6.f, 14.f, 23.1757813f, 43.8217773f, 57.6854706f, 0.0417792499f, 0.0438513607f, 0.0468885005f, 0.0552866831f, 0.069735609f, 0.139632702f, 0.191730708f, 0.199855f, 0.447139442f, 0.805738807f, 0.837823093f, 0.999672711f, 0.000533970946f, 0.0030977428f, 0.0148816444f, 0.0648061037f, 0.152513742f, 0.193550438f, 0.455360651f, 0.466705739f, 0.567011297f, 0.657827497f, 0.5f, 0.5f, 9.5f, 13.5f, 18.f, 24.5f, 43.5f, 45.5f, 49.f, 50.5f, 115.5f, 136.5f, 172.f, 349.f, 620.f, 707.5f, 952.5f, 1041.f, 2231.5f, 3967.f, 4924.5f, 6794.f, 19355.5f, 29911.f, 33942.f, 84694.5f, 139777.5f, 184659.f, 292968.f, 391608.5f, 471673.f, 551615.f, 563700.f, 820824.5f, 1080781.5f, 1131976.f, 1263084.f, 1438497.5f, 1558874.5f, 30125152.f, 80553856.f, 10.f, 19.4941406f, 20.02034f, 20.2986107f, 20.8671875f, 21.4208984f, 24.5449219f, 40.0071564f, 40.2431641f, 40.2832031f, 41.1484375f, 43.8217773f, 44.1041565f, 44.378418f, 66.8461914f, 69.0566406f, 73.6009369f, 80.2973633f, 128.15625f, 135.125f, 0.5f, 0.5f, 431.f, 26233.f, 53022.f, 131803.f, 378590.5f, 802490.5f, 817917.f, 2322217.f, 10514245.f, 10830846.f, 4.f, 14.f, 18.f, 26.1796875f, 29.5073242f, 33.5f, 47.0083008f, 0.00303841219f, 0.00762964599f, 0.0453913733f, 0.0836576074f, 0.100942992f, 0.122306563f, 0.193482906f, 0.226013273f, 0.313505411f, 0.364414066f, 0.374012947f, 0.399003476f, 0.406394571f, 0.474935114f, 0.503119171f, 0.507016301f, 0.567667246f, 0.800546885f, 0.830588579f, 0.5f, 431.f, 107527.5f, 1211902.f, 1750233.5f, 1755726.5f, 10514245.f, 2.f, 14.f, 18.f, 22.6796875f, 0.5f, 0.5f, 1.5f, 0.0934346393f, 0.498888254f, };

    /* Aggregated array of leaf values for trees. Each tree is represented by a separate line: */
    double LeafValues[6400][1] = {
        {-0.1027572787894548}, {0.1631115255221305}, {-0.2426809420892851}, {-0.01824894861257748}, {-0.5128859082099348}, {0}, {0}, {0}, {0.01427635566711251}, {0}, {0}, {0}, {0}, {0}, {0}, {0}, {0}, {-0.1511482993607739}, {0}, {0}, {0}, {0}, {0}, {0}, {0}, {0}, {0}, {0}, {0}, {0}, {0}, {0},
        {-0.0792856576727133}, {0.175644279902954}, {0.2185908621425844}, {0}, {-0.2010738133495935}, {-0.004932061391137503}, {0}, {0}, {-0.2325409379499801}, {0.03210664904732843}, {0}, {0}, {0}, {0}, {0}, {0}, {-0.4617987116178176}, {0}, {0}, {0}, {0}, {0}, {0}, {0}, {0}, {0}, {0}, {0}, {0}, {0}, {0}, {0},
        {-0.09557769079521757}, {0.1380943653213672}, {-0.200539770427118}, {-0.01196121501463178}, {-0.0504127544728331}, {-0.147060593868991}, {0}, {0}, {-0.4301309157121299}, {-0.1846088015224627}, {0}, {0}, {0}, {0}, {0}, {0}, {0.1664367894151467}, {0}, {0}, {0}, {0}, {0}, {0}, {0}, {-0.07049224704566132}, {0}, {0}, {0}, {0}, {0}, {0}, {0},
        {-0.08668691624603865}, {0}, {1.388487032373094}, {0}, {-0.2680968652405505}, {0}, {0}, {0}, {-0.001447586015164445}, {0.155690062868627}, {-0.0647189193566257}, {0.0444005536676949}, {-0.07954699696859313}, {0.007473685298735126}, {0}, {0}, {-0.3191040353314777}, {0}, {0}, {0}, {0}, {0}, {0}, {0}, {-0.1597915391115722}, {0.02223951237722537}, {0}, {0}, {0}, {0}, {0}, {0},
        {-0.1821217055042867}, {0.0151486550296213}, {0}, {0.1152761924778836}, {0.1826519442134397}, {0}, {0}, {0}, {0.1974616603850253}, {0}, {0}, {0}, {0}, {0}, {0}, {0}, {0}, {0}, {0}, {0}, {0}, {0}, {0}, {0}, {-0.1909171021256947}, {0}, {0}, {0}, {0}, {0}, {0}, {0},
        {-0.07153230997393729}, {0}, {0.04972659495327343}, {0.1825270266938891}, {0}, {0}, {-0.03733182621278584}, {0.0004238055074165554}, {1.282326882026729}, {0}, {0}, {0}, {0}, {0}, {0}, {0}, {-0.15446768684723}, {0}, {-0.01443393048527684}, {0.08810972483878858}, {0}, {0}, {-0.1207213576916625}, {-0.1594672192152141}, {-0.04929138007293045}, {0}, {0.0371240612821024}, {0.02559934236306533}, {0}, {0}, {0}, {0},
        {-0.05445518561915391}, {0.08718543945588453}, {0}, {0}, {0}, {0}, {0}, {0}, {0}, {0}, {0}, {0}, {0}, {0}, {0}, {0}, {-0.5219291630847837}, {0}, {0}, {0}, {0}, {0}, {0}, {0}, {0.1848854119078952}, {0}, {0}, {0}, {-0.2723561818591167}, {0}, {0.1927203930252992}, {0},
        {-0.1178023515189608}, {0.06413513636879635}, {0}, {0}, {0.2093331821534103}, {0}, {0}, {0}, {0}, {0}, {0}, {0}, {0}, {0}, {0}, {0}, {0.1664213693923111}, {0}, {0}, {0}, {0}, {0}, {0}, {0}, {-0.2672119942928}, {0}, {0.1628010129884243}, {0}, {0}, {0}, {0}, {0},
        {0.01809509957724776}, {0.08256987933669824}, {-0.3552213701029131}, {0}, {-0.1022611931525918}, {-0.02480755742164513}, {0}, {0}, {-0.395121498951635}, {0}, {0}, {0}, {-0.07572643607591689}, {0}, {0}, {0}, {0}, {0}, {0}, {0}, {0}, {0}, {0}, {0}, {0.04240912310585859}, {0}, {0}, {0}, {0.04095542750430221}, {0}, {0}, {0},
        {-0.1245031762750035}, {0.04782599092726032}, {0.1829859186305686}, {0}, {0}, {0}, {0}, {0}, {0}, {0}, {0}, {0}, {0}, {0}, {0}, {0}, {0.1480420170996386}, {0}, {0}, {0}, {0}, {0}, {0}, {0}, {-0.2582204415702012}, {0}, {0}, {0}, {0.1261001774136794}, {0}, {0}, {0},
        {-0.04211582299567627}, {0.01346957223214429}, {-0.3074372882660589}, {0}, {-0.04381851712998019}, {-0.1464181996184322}, {0}, {0}, {0.02219164142101508}, {-0.125341085932179}, {0}, {0}, {0}, {0}, {0}, {0}, {0}, {0.1117598958222335}, {0}, {0}, {0}, {-0.1601656672901955}, {0}, {0}, {0}, {-0.07366704120577705}, {0}, {0}, {0}, {0}, {0}, {0},
        {0.0159266180291538}, {-0.2768142804314069}, {0.0970063879697721}, {0}, {-0.06842870870314408}, {0}, {0.020286510978624}, {0}, {-0.1342765315018831}, {0}, {0}, {0}, {0}, {0}, {0}, {0}, {1.197710881588676}, {0}, {0}, {0}, {-0.02616182867174359}, {0}, {0.006193247320615991}, {0}, {0}, {0}, {0}, {0}, {0}, {0}, {0}, {0},
        {-0.0771047208805558}, {0.03733513365984614}, {0.2335766794154992}, {0}, {-0.2432173924546185}, {-0.2079257945899504}, {0.01483526466329961}, {0}, {0.08593782951633103}, {0}, {0}, {0}, {-0.129579921865161}, {0}, {0}, {0}, {-0.4471275716805549}, {0}, {0}, {0}, {0}, {0}, {0}, {0}, {0.0001922762964348592}, {0}, {0.08386023269231722}, {0}, {-0.2817833128180645}, {0}, {0.01258267520187013}, {0},
        {-0.01847882367243875}, {0.08294481206809931}, {-0.2765502295690376}, {-0.3148977989253831}, {-0.08779895603324121}, {-0.1534466370737981}, {0}, {0}, {-0.06574148435575174}, {-0.03442443158319342}, {-0.2622387201080237}, {-0.2880501494128728}, {0}, {0}, {0}, {0}, {0.9888572724938136}, {0}, {0}, {0}, {0}, {0}, {0}, {0}, {0.02205306449051507}, {0}, {0}, {0}, {0}, {0}, {0}, {0},
        {-0.001457883273815559}, {0.1061339723871031}, {-0.143057410249662}, {-0.1348741094449859}, {-0.1100776965617097}, {-0.03164104094009074}, {0}, {0}, {-0.1589235080127643}, {-0.1250654415240694}, {0}, {0}, {0}, {0}, {0}, {0}, {-0.2397207268926579}, {0}, {0}, {0}, {0}, {0}, {0}, {0}, {0}, {0}, {0}, {0}, {0}, {0}, {0}, {0},
        {-0.07217338496772253}, {0.0294956884691725}, {0.1878322867586947}, {0}, {0}, {0}, {0}, {0}, {0}, {0}, {0}, {0}, {0}, {0}, {0}, {0}, {0.1424459720473769}, {0}, {0}, {0}, {0}, {0}, {0}, {0}, {-0.1954638125638123}, {0}, {0}, {0}, {0.13740109050125}, {0}, {0}, {0},
        {0.04713642026577846}, {-0.2086537867535796}, {-0.1769708754159122}, {0}, {-0.1097489859168991}, {0}, {0}, {0}, {-0.04667049009522282}, {0}, {-0.1615219823198843}, {0}, {0}, {0}, {0}, {0}, {-0.1442197906876962}, {0}, {0}, {0}, {0}, {0}, {0}, {0}, {0}, {0}, {0}, {0}, {0}, {0}, {0}, {0},
        {-0.01533841640582493}, {0.08498586949647136}, {-0.1146212008358703}, {-0.06769745363086488}, {0.2231717774566438}, {0}, {0}, {0}, {-0.175157238236134}, {-0.04036292783735266}, {0}, {0}, {0.04003279355157822}, {0}, {0}, {0}, {-0.1179019910951867}, {-0.1147460360747223}, {0}, {0}, {0}, {0}, {0}, {0}, {0}, {0}, {0}, {0}, {0}, {0}, {0}, {0},
        {0.01621983119237024}, {-0.2257516790199804}, {-0.1863425211587718}, {0}, {-0.09153691055523804}, {0}, {0}, {0}, {-0.1354332030789909}, {-0.2143343837523383}, {0}, {0}, {0}, {0}, {0}, {0}, {0.04244075129193061}, {-0.1824180847302532}, {0}, {0}, {0}, {0}, {0}, {0}, {-0.01587065918645867}, {-0.1790473977228502}, {0}, {0}, {0}, {0}, {0}, {0},
        {0.02579689118080026}, {0.8371553450655022}, {-0.0483621131899365}, {0.0424819581032785}, {-0.2548520660540659}, {0}, {-0.07400064373309721}, {0}, {0}, {0}, {0}, {0}, {0.1044379578261123}, {0.7496985495136349}, {0.1438838730757073}, {0}, {-0.09151151968674806}, {0}, {0}, {0}, {-0.2310686617747137}, {0}, {0}, {0}, {0}, {0}, {0}, {0}, {0.08020076161684808}, {0}, {0}, {0},
        {0.005584106640512651}, {-0.1703509994004224}, {-0.3660935607260715}, {0}, {0.2442456675209423}, {0}, {0.01612938142567507}, {0}, {0}, {0}, {0}, {0}, {-0.2949465174721889}, {0}, {-0.2708161821949996}, {0}, {0}, {0}, {0}, {0}, {0}, {0}, {0}, {0}, {0}, {0}, {0}, {0}, {0.05182909928470579}, {0}, {0.03407685995170903}, {0},
        {-0.08566356482715233}, {0.03108080002949113}, {0.1817050269386233}, {0}, {0.02485908600222243}, {-0.1438932420517774}, {0}, {0}, {0.7784028846795654}, {0}, {0}, {0}, {-0.02983113784449496}, {0}, {0}, {0}, {0.01288479734669665}, {0}, {0}, {0}, {0}, {0}, {0}, {0}, {0}, {0}, {0}, {0}, {0}, {0}, {0}, {0},
        {-0.01308541414520989}, {0.07618722050810679}, {-0.09522441846955729}, {-0.02903909135944692}, {0.5672001641217322}, {0}, {0.07159000979784678}, {0}, {-0.1173155260643835}, {-0.1151466304928914}, {0}, {0}, {0}, {0}, {0}, {0}, {0.1643493801215629}, {0}, {0}, {0}, {0}, {0}, {0}, {0}, {0}, {0}, {0}, {0}, {0}, {0}, {0}, {0},
        {-0.004778383048598793}, {0.1861492552417171}, {-0.1329181719980545}, {0.01508337121245028}, {0}, {0}, {0}, {0}, {0}, {0}, {0}, {0}, {0}, {0}, {0}, {0}, {0.1245845186379198}, {0}, {-0.5074295662147409}, {0}, {0}, {0}, {0}, {0}, {-0.1883765586106672}, {0}, {-0.1993219129228485}, {0}, {0.1070200752197471}, {0}, {0.035932996641218}, {0},
        {0.02764067777219947}, {-0.1430707067109731}, {-0.03338277253189426}, {0}, {-0.1472804391655855}, {0}, {-0.1268877183650333}, {0}, {-0.3405437795847748}, {0}, {0}, {0}, {0}, {0}, {0}, {0}, {0.07674779403594165}, {0}, {0}, {0}, {0}, {0}, {0}, {0}, {-0.01286687495624649}, {0}, {-0.2829590292281247}, {0}, {0}, {0}, {0}, {0},
        {0.004742856547184601}, {0}, {0.03105329309848197}, {-0.07039618594211149}, {-0.2351749341742501}, {0}, {0.8300320301841714}, {-0.1846173484893495}, {0}, {0}, {0}, {0}, {0}, {0}, {0}, {0}, {-0.1161250165640249}, {0}, {-0.004785279694534034}, {0.02128542349248369}, {0}, {0}, {0}, {0}, {0.106362488391868}, {0}, {0.09323994672654548}, {0}, {0}, {0}, {0}, {0},
        {-0.1024707445210077}, {0.4207279067969811}, {0.114054207856643}, {0}, {-0.1736654966220341}, {0}, {0}, {0}, {0.01790055159551089}, {0}, {0}, {0}, {-0.1901834871562732}, {0}, {0}, {0}, {0.01244140873840203}, {0.6743002585266041}, {0}, {0}, {0}, {0}, {0}, {0}, {0}, {0}, {0}, {0}, {0}, {0}, {0}, {0},
        {-0.05306915574113841}, {0.1939736494747594}, {0.01436013203126966}, {0}, {0}, {0}, {0}, {0}, {-0.3141278291444181}, {0}, {0}, {0}, {0.02369164278979315}, {0}, {0}, {0}, {-0.2033603415401208}, {0.03456522007679312}, {-0.1648096358913804}, {0}, {0}, {0}, {0}, {0}, {0}, {0}, {0}, {0}, {-0.1521656617368584}, {0.0199363501831456}, {0}, {0},
        {-0.01100539450807994}, {-0.4087842819776514}, {-0.1018744243265479}, {-0.3945237910500216}, {0.05675691199862728}, {-0.3807766721877079}, {-0.05454051051338995}, {-0.2153377198197748}, {0}, {0}, {0}, {0}, {-0.1168199741555836}, {0}, {0}, {0}, {0.1132315806323522}, {0}, {0}, {0}, {0}, {0}, {0}, {0}, {0}, {0}, {0}, {0}, {0}, {0}, {0}, {0},
        {0.0003421828499761175}, {-0.5217654124751446}, {-0.2405885119594067}, {0}, {0}, {0}, {0}, {0}, {0}, {0}, {0}, {0}, {0}, {0}, {0}, {0}, {0.1772693981014129}, {0}, {-0.03568313705575196}, {0}, {0}, {0}, {0}, {0}, {-0.1678302941242192}, {0}, {-0.13969083962448}, {0}, {0.08658560697202096}, {0}, {0.0644774972490831}, {0},
        {-0.04540920492242459}, {0.7960279972140473}, {0.01798652486903933}, {-0.05671655989245592}, {-0.1296172860101401}, {0}, {-0.05051249453020796}, {-0.04418084143526788}, {0.1019317750113888}, {0}, {0}, {0}, {0.02120400571807645}, {0}, {0}, {0}, {0.1016095606959092}, {0}, {0}, {0}, {0}, {0}, {0}, {0}, {0}, {0}, {0}, {0}, {0}, {0}, {0}, {0},
        {0.00216266843627037}, {-0.1306635077931566}, {0.07794011253652557}, {-0.1518658154805078}, {-0.1148776414285825}, {0}, {-0.1012883269427497}, {0}, {-0.06181470593818526}, {0}, {-0.02748705167948842}, {0}, {0}, {0}, {0}, {0}, {-0.04583220770884007}, {-0.2023522897995716}, {0.01459857880863446}, {-0.1475519310793903}, {0}, {0}, {0}, {0}, {-0.1223694387968469}, {0}, {-0.09002845446236273}, {0}, {0}, {0}, {0}, {0},
        {-0.009468331370271522}, {0.5895437472635237}, {0}, {0.04838482765176946}, {-0.1026941510263426}, {0.07688595259470236}, {0}, {0}, {0.03601483880234999}, {0}, {-0.06538568851982159}, {0}, {-0.01846480656642786}, {0}, {0}, {0}, {0}, {0}, {0}, {0}, {0}, {0}, {0}, {0}, {-0.1133622428428773}, {0}, {0}, {0}, {0}, {0}, {0}, {0},
        {0.001475504492395833}, {0}, {0}, {0}, {0}, {0}, {0}, {0}, {0}, {0}, {0}, {0}, {0}, {0}, {0}, {0}, {-0.2642477091216467}, {0}, {0}, {0}, {0}, {0}, {0}, {0}, {0.1021378417819904}, {0}, {-0.2151583538042817}, {0}, {0}, {0}, {-0.01103468298935327}, {0.08892675586653057},
        {-0.07212925879236688}, {0.5354500169761705}, {-0.06691243922725541}, {-0.02965956484623327}, {0.01667892412768675}, {0}, {-0.01335932213418824}, {0}, {0.09527428286454695}, {0}, {0}, {0}, {0}, {0}, {0}, {0}, {0.0150435509384755}, {0.6055264774615143}, {-0.2584546855314148}, {0}, {0}, {0}, {0}, {0}, {0}, {0}, {0}, {0}, {0}, {0}, {0}, {0},
        {-0.02753049471591678}, {-0.1280094360468383}, {0.1063483627381074}, {0}, {0.01888311681159011}, {-0.03406799449352373}, {0}, {0}, {0.5236014267131693}, {0}, {0}, {0}, {-0.02505570270219826}, {0}, {0}, {0}, {0.08578762802426115}, {0}, {0}, {0}, {0}, {0}, {0}, {0}, {0}, {0}, {0}, {0}, {0}, {0}, {0}, {0},
        {-0.001860311320296266}, {0.1279002769773154}, {-0.1902572393412766}, {0}, {-0.3626775279751783}, {0}, {0}, {0}, {-0.1091825415570526}, {0}, {-0.1810472911598728}, {0}, {0}, {0}, {0}, {0}, {0.06552025914209456}, {0}, {0}, {0}, {0}, {0}, {0}, {0}, {0.0231619554189552}, {0}, {0}, {0}, {0}, {0}, {0}, {0},
        {-0.001244884110479976}, {-0.2277414815258214}, {0.1376785727242827}, {0}, {-0.07259259869920286}, {-0.1959681276801721}, {0.01298850020867192}, {0}, {0.08646374303654171}, {0}, {0}, {0}, {0}, {0}, {0}, {0}, {0.3623115332630037}, {0}, {0}, {0}, {0}, {0}, {0}, {0}, {0}, {0}, {0}, {0}, {0}, {0}, {0}, {0},
        {0.004779330751600194}, {0}, {0.05895996808622897}, {0}, {-0.0803395150942972}, {-0.08875159598473374}, {0.01518041116542752}, {-0.1148417392802163}, {-0.02138108212399868}, {0}, {-0.04766927509195792}, {0}, {0}, {0}, {0}, {0}, {-0.1158662180102382}, {0}, {-0.09525479065506882}, {0}, {0}, {0}, {0}, {0}, {0}, {0}, {0}, {0}, {0}, {0}, {0}, {0},
        {0.01833114196670703}, {0.4287372548361547}, {-0.02183735037843585}, {-0.04113119768811398}, {-0.04979445382934865}, {0}, {0}, {0}, {-0.1909028461457688}, {0}, {-0.01095316974273927}, {0}, {0}, {0}, {0}, {0}, {0}, {0}, {0}, {0}, {0}, {0}, {0}, {0}, {0.03149050649959149}, {0.5549961214134388}, {0.1148728508510694}, {0}, {0}, {0}, {0}, {0},
        {-0.007579299267469008}, {0.04680046909708355}, {0.4597858668655035}, {0}, {-0.05864120901505507}, {0}, {-0.03690479249606454}, {0}, {-0.241442238230732}, {0}, {0}, {0}, {-0.0959410759653473}, {0}, {0}, {0}, {0.02273576705576116}, {-0.08186564494196985}, {0}, {0}, {-0.009721887882753712}, {0}, {0}, {0}, {0}, {0}, {0}, {0}, {0}, {0}, {0}, {0},
        {0.003066540073612849}, {-0.1066872320889212}, {0}, {0}, {0}, {0}, {0}, {0}, {0}, {0}, {0}, {0}, {0}, {0}, {0}, {0}, {-0.2280109496015915}, {0}, {0}, {0}, {0}, {0}, {0}, {0}, {0.09215431134987993}, {0}, {0}, {0}, {-0.1163914877597244}, {0}, {0.06525397820181594}, {0},
        {-0.004756755062556608}, {-0.07190620373992362}, {0.04714228212922544}, {-0.06424373450580208}, {-0.1036548822074977}, {-0.1757640968323752}, {-0.06334156958633973}, {-0.09386919770871888}, {0}, {0}, {-0.09332422301183743}, {0}, {0}, {0}, {0}, {0}, {-0.04379963703650653}, {-0.01705050284373887}, {-0.06700371110785362}, {-0.07626592222899681}, {0}, {0}, {-0.1062183418206732}, {-0.0674196188073035}, {0}, {0}, {0}, {0}, {0}, {0}, {0}, {0},
        {-0.005233342234630438}, {-0.0918625430023151}, {-0.3994221521745615}, {0}, {0.04784005064132526}, {-0.08756590054337698}, {-0.2041722644373312}, {0}, {0.07678629294711599}, {0}, {0}, {0}, {0}, {0}, {0}, {0}, {-0.0465923348954475}, {0}, {-0.04219553105928629}, {0}, {-0.0832313965676782}, {0}, {0}, {0}, {0}, {0}, {0}, {0}, {0}, {0}, {0}, {0},
        {-0.0008053624995763765}, {0}, {0}, {0}, {0}, {0}, {0}, {0}, {0.2623850547982328}, {0}, {-0.2018763390241348}, {0}, {0}, {0}, {-0.0154665875311803}, {0.1593787601755182}, {-0.1838714824720959}, {0}, {0}, {0}, {0}, {0}, {0}, {0}, {0.02623167824887242}, {0}, {-0.1701890572399673}, {0}, {0}, {0}, {0.007988965423160898}, {0.08356788143428016},
        {0.01501372335118992}, {-0.03988700347650224}, {-0.08616153392503301}, {0}, {-0.01590166977646952}, {-0.0347960049595565}, {0}, {0}, {-0.03784467682105862}, {0}, {0}, {0}, {-0.1056279011810081}, {0}, {0}, {0}, {-0.02831492382512312}, {0}, {0}, {0}, {-0.03629751241468102}, {0}, {0}, {0}, {0}, {0}, {0}, {0}, {0}, {0}, {0}, {0},
        {-0.02869721992368692}, {0.1060693944884959}, {0.2916946467673593}, {0.2321596727816791}, {0.09749617055706085}, {0}, {0}, {0}, {0.01525015059872627}, {0}, {0}, {0}, {0}, {0}, {0}, {0}, {0.08176927601914442}, {0}, {0.1634293749092617}, {0}, {0}, {0}, {0}, {0}, {-0.02131668604361248}, {0}, {0}, {0}, {0}, {0}, {0}, {0},
        {-0.002193606426507305}, {-0.08564868612956578}, {0.05795356067381453}, {-0.009579053564366174}, {-0.0175952784441903}, {0}, {-0.02336274414583602}, {0}, {0}, {0}, {-0.07540175131316401}, {0}, {0}, {0}, {0}, {0}, {-0.0681289451446776}, {-0.04033640466873182}, {-0.04158791853353394}, {-0.06130641086708789}, {-0.02761186769712519}, {0}, {-0.03674141342564703}, {0}, {0}, {0}, {0}, {0}, {0}, {0}, {0}, {0},
        {0.01509926535879017}, {0.4892873548692703}, {-0.01465233894117094}, {0.003765411953795616}, {-0.1568697495160468}, {0}, {0}, {0}, {-0.003556862054568203}, {-0.03730019893724592}, {0}, {0}, {0.06361417887806696}, {0}, {0}, {0}, {-0.03645614548932262}, {0}, {-0.04867551506189}, {0.1265997280768656}, {0}, {0}, {0}, {0}, {-0.02993224119775283}, {0.04956621470817285}, {0}, {0}, {0}, {0}, {0}, {0},
        {-0.008012513925084567}, {0.1191459627397839}, {-0.04999601047436461}, {0.005309079457955335}, {-0.08666599576645963}, {0}, {0}, {0}, {0.03286839289542483}, {0}, {-0.1905704794186406}, {0}, {-0.06830541695222811}, {0}, {0}, {0}, {-0.02327880851355776}, {0}, {-0.1620580222898439}, {0}, {0}, {0}, {0}, {0}, {-0.02994537086981616}, {0}, {-0.1580462653859582}, {0}, {0}, {0}, {0}, {0},
        {-0.00113476492260567}, {-0.1471569154641391}, {0}, {0}, {0}, {0}, {0}, {0}, {0.1525008856510204}, {0}, {0}, {0}, {-0.08427076475095417}, {0}, {0.06834977237183006}, {0}, {-0.1297298137308779}, {0}, {0}, {0}, {0}, {0}, {0}, {0}, {-0.03729847468958317}, {0}, {0}, {0}, {-0.05150960645466112}, {0}, {0.03770775813172431}, {0},
        {-0.0005019869399954812}, {-0.08432899941155414}, {0.05236353039270316}, {-0.07446878701326777}, {0.1112284290329528}, {0}, {0}, {0}, {-0.05399024194830521}, {0}, {-0.06050763837335869}, {0}, {0.0147548402101564}, {0}, {0}, {0}, {-0.03519337791689949}, {0}, {-0.003431098778165058}, {0}, {0}, {0}, {0}, {0}, {0}, {0}, {0}, {0}, {0}, {0}, {0}, {0},
        {-0.0027107453823764}, {-0.1397042277154117}, {0.09747648881497159}, {0}, {0.02659923139815776}, {0}, {0}, {0}, {-0.09864921030800622}, {0}, {0.004328442990695751}, {0}, {-0.16222310410657}, {0}, {0}, {0}, {-0.09120169623306082}, {-0.1019262023349621}, {0}, {0}, {-0.09886607475824231}, {0}, {0}, {0}, {-0.1991959809063056}, {0}, {0}, {0}, {-0.07278358221513313}, {0}, {0}, {0},
        {0.004264926913385925}, {-0.2524957831130089}, {-0.05162816383764904}, {-0.03670253189454615}, {-0.07628406435444963}, {0}, {0}, {0}, {-0.09391789785064408}, {-0.1573369628877328}, {-0.07439259390848774}, {0}, {0}, {0}, {0}, {0}, {0.07611667211052719}, {0}, {0}, {0}, {-0.01124049502044491}, {0}, {0}, {0}, {0}, {0}, {0}, {0}, {0}, {0}, {0}, {0},
        {-0.05525415211364688}, {0.0637914600422464}, {0.04780518013897998}, {0}, {0}, {0}, {0}, {0}, {0.009411625096118625}, {0}, {-0.05780496575462465}, {0}, {0}, {0}, {0}, {0}, {0.006768766578113945}, {0}, {0}, {0}, {0.06390477613998041}, {0}, {0}, {0}, {0}, {0}, {0}, {0}, {0}, {0}, {0}, {0},
        {-0.01113088848002761}, {0}, {0}, {0}, {-0.06671429873425612}, {0}, {0}, {0}, {0.01540766258735701}, {-0.3169934247084779}, {-0.06870641065955743}, {0}, {-0.006932150879502459}, {-0.09938187507456196}, {0}, {0}, {0.4736799714228246}, {0}, {0}, {0}, {0}, {0}, {0}, {0}, {-0.06161689751359347}, {0}, {0}, {0}, {0}, {0}, {0}, {0},
        {-0.01234525829693079}, {0.1043314740265884}, {0.1087835860039237}, {0}, {-0.05417424380634899}, {0}, {0}, {0}, {0.04224302865484163}, {0}, {0}, {0}, {-0.03128566062404702}, {0}, {0}, {0}, {-0.03653388608823204}, {0}, {0}, {0}, {-0.08618664180688042}, {0}, {0}, {0}, {0.002827719032385894}, {0}, {0}, {0}, {-0.04578951114418166}, {0}, {0}, {0},
        {-0.004498742494401015}, {0.09102704546457163}, {0.0118340180008627}, {0}, {-0.006114169543630379}, {0}, {0.1423378768345157}, {0}, {0.03182021080188707}, {0}, {-0.04463451872610823}, {0}, {-0.02166125386573565}, {0}, {-0.03900609027239478}, {0}, {-0.09325221784682737}, {0}, {0.03562298663338245}, {0}, {0}, {0}, {0}, {0}, {-0.01412047202880012}, {0}, {-0.05376717396382056}, {0}, {0}, {0}, {0}, {0},
        {0.004855091381053438}, {-0.04209202944717999}, {0.1534673432446349}, {0}, {0}, {0}, {0}, {0}, {-0.09249443716058593}, {0}, {0}, {0}, {0.04465108048519909}, {0}, {0.468427763698756}, {0}, {-0.07500963639024189}, {0}, {0}, {0}, {0}, {0}, {0}, {0}, {-0.04812625291021502}, {0}, {0}, {0}, {0.03745255206185932}, {0}, {0}, {0},
        {0.001120914695783095}, {-0.06179355856616323}, {-0.03386731141632073}, {-0.01363882538437518}, {-0.06515275081358984}, {0}, {0}, {0}, {0.04702548678935456}, {-0.06957132973836778}, {-0.08096301004286729}, {0}, {-0.05476294950093463}, {0}, {0}, {0}, {-0.005261716089088535}, {-0.08354018887988293}, {-0.02824384766249422}, {0}, {-0.08899207930899686}, {0}, {0}, {0}, {0.009933921848743503}, {-0.1593346344703909}, {-0.06438582415864208}, {0}, {-0.08968264126687056}, {0}, {0}, {0},
        {0.0006757106954644332}, {0.05923676561430525}, {-0.0366673937739747}, {0}, {0}, {0}, {0}, {0}, {0.2490304862519936}, {0}, {0.1365374339726248}, {0}, {0}, {0}, {0}, {0}, {-0.1250392657107935}, {0}, {0}, {0}, {0.05119612851240034}, {0}, {0}, {0}, {0}, {0}, {0}, {0}, {0}, {0}, {0}, {0},
        {-0.001307043067716009}, {0}, {0}, {0}, {0.1285994661657871}, {0}, {-0.1073171105201135}, {0.04014740543250366}, {-0.09631989847081529}, {0}, {0}, {0}, {-0.03472216860832846}, {0}, {-0.07875884610752452}, {0.03208366763497353}, {-0.03104776827130113}, {0}, {0}, {0}, {-0.3753346166771095}, {0}, {-0.06396856991508665}, {0.02466329713603869}, {-0.1365095784589584}, {0}, {0}, {0}, {-0.2425558476464671}, {0}, {-0.04229575389820319}, {0.0437959197790978},
        {-0.03595679396169282}, {-0.04325810478289665}, {0.01992456994319915}, {-0.005178822982544194}, {0.3160842984165236}, {0.01276116531943325}, {0}, {0}, {-0.1270736547528918}, {0}, {-0.01674405891075691}, {0}, {-0.02051593704763195}, {0}, {0}, {0}, {0.01455396120588523}, {-0.2394267294999762}, {0}, {0}, {0.434630680950464}, {0}, {0}, {0}, {0.0410841330892444}, {0}, {0}, {0}, {0}, {0}, {0}, {0},
        {0.008393634611999188}, {-0.09862255000897806}, {-0.03907993128142553}, {-0.05018594841823365}, {-0.004045601946731136}, {-0.04640101981175809}, {-0.02010034576441203}, {0}, {-0.01749515569702628}, {0}, {-0.03642708502439276}, {0}, {-0.0446577346467984}, {0}, {-0.000362360815153449}, {0}, {-0.07482450026093705}, {0}, {0}, {0}, {0}, {0}, {0}, {0}, {0}, {0}, {0}, {0}, {0}, {0}, {0}, {0},
        {-0.002962396591566184}, {0.06680544836955617}, {-0.172945588452614}, {-0.00344661351013908}, {0.06487921351519646}, {0}, {-0.05536147411259683}, {0}, {0}, {0}, {0}, {0}, {0}, {0}, {0}, {0}, {-0.1535602538771752}, {0}, {0}, {0}, {0}, {0}, {0}, {0}, {0.04791181392362229}, {0}, {0}, {0}, {0}, {0}, {0}, {0},
        {0.0009746260646086573}, {-0.0981872884615675}, {-0.06634122430150617}, {0}, {0.05344867233337788}, {-0.08115353805811641}, {-0.05361234101990644}, {0}, {-0.02281272242781132}, {-0.08648960041855537}, {0}, {0}, {-0.01467373039161345}, {-0.0526983219976103}, {0}, {0}, {-0.02528780559718691}, {-0.03274522171563572}, {0}, {0}, {-0.06491935107189524}, {-0.03500865621166886}, {0}, {0}, {-0.02475859519290612}, {0}, {0}, {0}, {-0.08340367117586164}, {-0.02582515370005686}, {0}, {0},
        {0.005697107540684402}, {-0.05282482264408014}, {0}, {0}, {-0.162447329203645}, {0}, {0}, {0}, {0}, {0}, {0}, {0}, {-0.003157024093501296}, {0}, {0.03469147140937422}, {0}, {-0.03052639724733916}, {0}, {0}, {0}, {0}, {0}, {0}, {0}, {0}, {0}, {0}, {0}, {0}, {0}, {0}, {0},
        {0.005775615748520954}, {-0.1961169189511107}, {-0.1524551568119433}, {0}, {0.1557739732270813}, {0}, {0}, {0}, {-0.02524763962496495}, {0}, {0}, {0}, {0.007061268960197509}, {0}, {0}, {0}, {-0.005080830782676982}, {-0.1304814792488747}, {0.02433003757924225}, {0}, {-0.004087471835974622}, {0}, {0}, {0}, {0}, {0}, {0}, {0}, {0}, {0}, {0}, {0},
        {0.01316419835507221}, {-0.1226408847557846}, {-0.006229188375000089}, {0.07580451831092018}, {-0.006813852976461073}, {0}, {0}, {0}, {-0.2390437820880875}, {0}, {0.006436783809382841}, {0}, {-0.03412669899612099}, {0}, {0}, {0}, {-0.05624266925586793}, {0}, {0}, {0}, {0}, {0}, {0}, {0}, {0}, {0}, {0}, {0}, {0}, {0}, {0}, {0},
        {-0.00492765438477388}, {0.05973749840861169}, {0.02291610051744375}, {0.02987615465584907}, {0.05022774007636495}, {0}, {0}, {0}, {0.3804580150157854}, {0}, {0}, {0}, {0}, {0}, {0}, {0}, {-0.04830870401236263}, {-0.1162200637434234}, {-0.08850725627153873}, {0}, {0.009152880478082078}, {-0.02790578893121414}, {-0.07797680901747181}, {-0.07717859977694412}, {0}, {0}, {0}, {0}, {-0.06206769619411107}, {0}, {0}, {0},
        {0.002573161065436902}, {-0.05503676858622179}, {0.08172980033717143}, {0}, {-0.1197469770348752}, {-0.1476672809654968}, {0.01008066481165285}, {0}, {-0.04765475249170761}, {0}, {0}, {0}, {0}, {0}, {0}, {0}, {-0.006940543325289501}, {0}, {0}, {0}, {-0.002337677246078594}, {0}, {0}, {0}, {0}, {0}, {0}, {0}, {0}, {0}, {0}, {0},
        {-0.013637373434057}, {0.05724507199250962}, {0.01523624586653808}, {-0.0321997083394251}, {-0.0219503729168263}, {0}, {-0.1061750983669381}, {0}, {-0.0005159909651651349}, {0}, {-0.0006888291237099447}, {-0.01570001266397478}, {0.04116928116939916}, {0}, {-0.1027077103445317}, {0}, {0.04737962914044514}, {0}, {0}, {0}, {0}, {0}, {0}, {0}, {0}, {0}, {0}, {0}, {0}, {0}, {0}, {0},
        {-0.03975901393501602}, {0.1297339981059658}, {0.0703573639085181}, {0}, {-0.07819578499063252}, {0}, {0}, {0}, {0.009965063053938537}, {-0.03317535308118313}, {0}, {0}, {-0.02398446246758748}, {-0.04776880962475959}, {0}, {0}, {0.01371522827378236}, {0.07234148115864589}, {0}, {0}, {0}, {0}, {0}, {0}, {0}, {0}, {0}, {0}, {0}, {0}, {0}, {0},
        {-0.004383265474663316}, {0.07729730068807104}, {-0.03242228832963012}, {0}, {0}, {0}, {-0.09146714512284977}, {0}, {-0.03430510965247365}, {0.01545804712697903}, {-0.1017222116644258}, {0}, {0}, {0}, {0}, {0}, {0.01331661743079345}, {0}, {-0.0519299861801062}, {0}, {-0.06127843327744977}, {0}, {-0.04542259012578122}, {0}, {-0.03770345498115599}, {0}, {-0.1086199789688217}, {0}, {0}, {0}, {0}, {0},
        {-0.002282406422324633}, {-0.2337437889581695}, {-0.05139093775517563}, {0}, {-0.04275494050171836}, {0}, {0}, {0}, {0.02281671634680794}, {-0.1380090041566699}, {-0.04067907086928526}, {0}, {0}, {0}, {0}, {0}, {0.03863227462748561}, {0}, {0}, {0}, {0}, {0}, {0}, {0}, {0}, {0}, {0}, {0}, {0}, {0}, {0}, {0},
        {-0.0009857172248592034}, {0}, {0}, {0}, {0}, {0}, {0}, {0}, {0.2069029555712814}, {0}, {-0.1501580449799355}, {0}, {0}, {0}, {-0.03886323830869674}, {0.03176943408553508}, {-0.1310627665021253}, {0}, {0}, {0}, {0}, {0}, {0}, {0}, {0.01527395075130685}, {0}, {-0.1189570312819776}, {0}, {0}, {0}, {-0.01121520162112961}, {0.02805543147736569},
        {0.00024939944963416}, {0}, {-0.118708545118764}, {0}, {-0.007309511089541581}, {0.1110830242096191}, {0.0356582203319572}, {-0.05919961654088595}, {0.06251496795605005}, {0}, {0.003327650694980405}, {0}, {0}, {0}, {0}, {0}, {-0.07508293369167118}, {0}, {0}, {0}, {0}, {0}, {0}, {0}, {0}, {0}, {0}, {0}, {0}, {0}, {0}, {0},
        {-0.0009385632451698171}, {-0.00239981381569398}, {-0.07106305579696064}, {0}, {-0.01525490521408731}, {0}, {0}, {0}, {0.02519287920862986}, {-0.02101546092264432}, {-0.03854263848303972}, {0}, {-0.03840742539698649}, {-0.02282371592699846}, {0}, {0}, {-0.08222648223708003}, {0}, {0}, {0}, {-0.05094639089414422}, {0}, {0}, {0}, {-0.01067504428690113}, {0}, {0}, {0}, {-0.01868494251018053}, {0}, {0}, {0},
        {0.000142743396437777}, {0}, {0}, {0}, {0}, {0}, {0}, {0}, {0}, {0}, {0}, {0}, {0}, {0}, {0}, {0}, {-0.2140637450411432}, {-0.07344856942236047}, {0}, {0}, {0}, {0}, {0}, {0}, {0.1011797407550236}, {-0.03495317424366982}, {0}, {0}, {-0.1100742470289175}, {-0.07702521705394617}, {0.01200786839850083}, {0.02117120586398842},
        {-0.0004807640612641824}, {0.06582222067391359}, {-0.08530786103330067}, {0}, {0.05868156974193155}, {0}, {0}, {0}, {-0.1138183929395801}, {0}, {0}, {0}, {0.003842739231804166}, {0}, {0}, {0}, {-0.07761331004512589}, {-0.01403203318837537}, {0}, {0}, {0}, {0}, {0}, {0}, {0}, {0}, {0}, {0}, {0}, {0}, {0}, {0},
        {-0.004047108207528116}, {0.3091071584976459}, {-0.01560680792390001}, {0}, {0.005750392382758367}, {-0.04583971218258755}, {0}, {0}, {0.007479382136607625}, {-0.009722958534724964}, {-0.03676893091835165}, {0}, {-0.02938405393840586}, {-0.06468918548775607}, {-0.005688633599582567}, {0}, {-0.05698130972325286}, {0}, {0}, {0}, {0}, {0}, {0}, {0}, {0.06441033860026023}, {0}, {0}, {0}, {0}, {0}, {0}, {0},
        {-0.004725073759151186}, {0.3262650543958405}, {-0.03193020309087782}, {0}, {0.01882977353529085}, {0}, {0.006432700949966933}, {-0.0592690347968025}, {-0.09736874875168927}, {0}, {-0.08755969007517314}, {0}, {-0.001024145985386596}, {0}, {-0.005392268733303075}, {0}, {0.1268508806581841}, {0}, {0}, {0}, {-0.008039651606052446}, {0}, {-0.01675187623332961}, {0}, {0}, {0}, {0}, {0}, {-0.02206502830633341}, {0}, {-0.02069639091472361}, {0},
        {0.001649713295670318}, {0.06082242110884285}, {-0.08143137669222994}, {0.02066232867296838}, {-0.04090716490058642}, {0}, {0}, {0}, {-0.04292434968433066}, {0}, {-0.006883186598603762}, {0}, {0}, {0}, {0}, {0}, {0.009168117981623775}, {0}, {-0.0252317319735238}, {-0.02000806309604635}, {0}, {0}, {0}, {0}, {-0.02852046788834168}, {0}, {-0.1090333087634971}, {0}, {0}, {0}, {0}, {0},
        {0.0007513739933848134}, {-0.01658469896214548}, {0.02011365777092189}, {-0.0606698704240095}, {-0.02522310992176223}, {-0.01574710292896523}, {-6.398906027908897e-05}, {-0.002668790642266184}, {0.3145366653845929}, {0}, {0}, {0}, {-0.08815433209003909}, {0}, {0}, {0}, {-0.001331711912749507}, {0.004572920834522412}, {-0.04340580173507171}, {-0.009155236224436376}, {0}, {0}, {0}, {0}, {-0.06291403491419345}, {0}, {0}, {0}, {0}, {0}, {0}, {0},
        {-0.0007117455264110963}, {-0.03569104528012199}, {-0.06998170858608591}, {0}, {0.01124093087247125}, {-0.01256279853572527}, {-0.008766731114447066}, {0}, {0}, {0}, {0}, {0}, {0}, {0}, {0}, {0}, {0.5927835928998296}, {0}, {0}, {0}, {0}, {0}, {0}, {0}, {-0.02531896362631408}, {0}, {0}, {0}, {0}, {0}, {0}, {0},
        {0.008420548572119374}, {-0.04168869118888018}, {-0.02531001939680167}, {-0.04367135787581445}, {-0.01163361630083719}, {-0.02081412161121874}, {-0.01598526723890598}, {-0.03664333867801004}, {-0.2020297683031742}, {0}, {0}, {0}, {0.04239212068913359}, {0}, {0}, {0}, {-0.0008881279616043035}, {-0.02111827253273981}, {-0.02594950809633889}, {-0.009158000941876139}, {0}, {0}, {0}, {0}, {-0.01397586495994606}, {0}, {0}, {0}, {0}, {0}, {0}, {0},
        {-0.01507769266410276}, {0}, {0.02995338654944815}, {0}, {0.008958498297298424}, {-0.0383068199762934}, {0}, {0}, {-0.2222811262223889}, {0}, {0.03919598837093861}, {0}, {-0.01602830305910355}, {0}, {0}, {0}, {0.03073751636939464}, {0}, {0}, {0}, {0}, {0}, {0}, {0}, {0}, {0}, {0}, {0}, {0}, {0}, {0}, {0},
        {0.003964783671138162}, {0.06889679100200408}, {-0.07574709961160643}, {0}, {-0.01959093843905461}, {0}, {0}, {0}, {-0.01365021270322562}, {0}, {-0.01718233463168355}, {0}, {-0.02087954355149297}, {0}, {0}, {0}, {-0.07123507930506133}, {0.0179620646574581}, {0}, {0}, {0}, {0}, {0}, {0}, {0}, {0}, {0}, {0}, {0}, {0}, {0}, {0},
        {0.0003078953797404508}, {-0.2165511940032963}, {-0.03362008686687119}, {0}, {-0.01011189567300224}, {0}, {0}, {0}, {0.03042922049288376}, {0}, {0}, {0}, {0}, {0}, {0}, {0}, {0.1862366823252689}, {0}, {0}, {0}, {-0.08094090906314454}, {0}, {0}, {0}, {0}, {0}, {0}, {0}, {0}, {0}, {0}, {0},
        {-1.87361991276945e-05}, {-0.0408502303896561}, {0}, {0}, {0}, {0}, {0}, {0}, {-0.1031998479645005}, {0}, {0}, {0}, {0}, {0}, {0}, {0}, {0.06106239431231641}, {0}, {0}, {0}, {0.01052085803034928}, {0}, {0.1511131834048565}, {0}, {-0.01322220473667788}, {0}, {0}, {0}, {0.01847807465827839}, {0}, {0.03999495611941804}, {0},
        {0.005638815947304386}, {-0.07973465525619219}, {-0.01073575455098342}, {0.1708119061653468}, {-0.01613952913299256}, {0}, {-0.02137076737817022}, {0}, {-0.02168341735977238}, {0}, {-0.03406645747734767}, {0}, {0.01068775305111702}, {0}, {-0.04269865871047086}, {0}, {-0.01900668424056728}, {0}, {0}, {0}, {-0.0709281465186532}, {0}, {0}, {0}, {-0.03380010579236977}, {0}, {0}, {0}, {0}, {0}, {0}, {0},
        {-0.002104438077958464}, {0.04192994013617524}, {-0.1540531777966206}, {0.02796643059413752}, {-0.009018210899002602}, {0}, {0}, {0}, {0.009157908949234206}, {0}, {0}, {0}, {-0.06148849482154269}, {0}, {0}, {0}, {-0.04553379171727734}, {0}, {0}, {0}, {0}, {0}, {0}, {0}, {-0.04648631570598553}, {0}, {0}, {0}, {0}, {0}, {0}, {0},
        {0.0001073339950056637}, {0}, {0}, {0}, {0}, {0}, {0}, {0}, {-0.2330424686316842}, {0}, {0}, {0}, {0.1708951377701096}, {0}, {-0.07810609051841522}, {0.02800324956328615}, {0}, {0}, {0}, {0}, {0}, {0}, {0}, {0}, {-0.09277443406245905}, {0}, {0}, {0}, {0.01338494867207318}, {0}, {-0.04500274196274546}, {0.0193579977791867},
        {0.001850026658551821}, {0.03484231675774832}, {-0.1595698216292661}, {0.02146756550116562}, {-0.01761661588686137}, {0}, {0}, {0}, {-0.02929839719540652}, {0}, {0}, {0}, {0}, {0}, {0}, {0}, {-0.04166157573846469}, {0}, {0}, {0}, {-0.04838742740407981}, {0}, {0}, {0}, {0}, {0}, {0}, {0}, {0}, {0}, {0}, {0},
        {0.008658407881000439}, {-0.002231528606457746}, {-0.02397526315699079}, {-0.02460486278146304}, {0.00339452129470236}, {-0.0316310200807771}, {-0.02582006973261592}, {-0.0445061833514869}, {-0.09514623028625328}, {0}, {0}, {0}, {0}, {0}, {0}, {0}, {-0.001489079611161267}, {0}, {-0.0253553945718806}, {0}, {0}, {0}, {0}, {0}, {0.07446847328132017}, {0}, {0}, {0}, {0}, {0}, {0}, {0},
        {-0.001686124093786544}, {0.03746824528847447}, {-0.00607777189969383}, {-6.548921503135385e-06}, {0.01448360142477657}, {0.07913038013258901}, {-0.01970485672263773}, {-0.02854253111778498}, {-0.05684388702237846}, {0}, {0}, {0}, {0}, {0}, {0}, {0}, {-0.06838530800984853}, {0}, {-0.03984364448547994}, {0}, {-0.05054478004912658}, {0}, {-0.01932273048876185}, {0}, {0}, {0}, {0}, {0}, {0}, {0}, {0}, {0},
        {0.003121707064945086}, {-0.08551524237796293}, {0.02606333790626475}, {0.05235121490972157}, {-0.02113307773979207}, {0}, {0.02269577416576762}, {0.3852195466896115}, {-0.01755293290018255}, {0}, {-0.024556665173362}, {0}, {0}, {0}, {0.01715135406347205}, {0}, {0}, {0}, {-0.004552513114619738}, {0}, {0}, {0}, {-0.0286217206732517}, {0}, {0}, {0}, {-0.0007557683747920411}, {0}, {0}, {0}, {-0.01400085466842127}, {0},
        {-0.007117725034725805}, {0}, {-0.04998066066890988}, {0}, {0.00511419697066174}, {0}, {0}, {0}, {-0.1784141734338694}, {0}, {0}, {0}, {0}, {0}, {0}, {0}, {0.006120160745830351}, {-0.1976055072197226}, {-0.02010622086995966}, {-0.002805163449928767}, {0}, {0}, {0}, {0}, {0.05518703101963919}, {0}, {0}, {0}, {0}, {0}, {0}, {0},
        {-0.003495265715869552}, {-0.07390181860278046}, {-0.01933932325433657}, {0}, {0.003746436579285986}, {0}, {-0.0215803810226284}, {0}, {0.01342390078636517}, {-0.1803962383343728}, {-0.02084907324197874}, {0}, {-0.01746263457500761}, {-0.06204020504559283}, {-0.03722850277115971}, {0}, {-0.01564182858688735}, {-0.002735034362635524}, {-0.0529751340944224}, {0}, {0.008977588086676567}, {0}, {-0.002503154776567989}, {0}, {-0.0241563213701609}, {0}, {-0.02707597735928588}, {0}, {-0.0124279583614592}, {0}, {-0.01929671201197469}, {0},
        {0.003762420275153195}, {0.01374301884449218}, {0.2565204430574954}, {0}, {-0.4035044676993719}, {0}, {0}, {0}, {-0.005296178976818817}, {-0.06510129301639823}, {0.00525028630553483}, {0}, {0}, {0}, {0}, {0}, {0.00860170792052567}, {0}, {0}, {0}, {-0.006204847466149911}, {0}, {0.05251385644546984}, {0}, {0}, {0}, {0}, {0}, {0}, {0}, {0}, {0},
        {-0.001550668099552666}, {0}, {-0.04411542320999479}, {0}, {0}, {0}, {0}, {0}, {0}, {0}, {0}, {0}, {0}, {0}, {0}, {0}, {0.09434824798171039}, {0}, {-0.02537641866193624}, {0}, {0}, {0}, {0}, {0}, {-0.1385019578362475}, {0}, {-0.1019940345401853}, {0}, {-0.01140958591245884}, {0.08536595287575484}, {0.01903618984428998}, {-0.01123446944161965},
        {-0.004296482009756179}, {0}, {-0.06857288204381905}, {0}, {-0.07265864246291114}, {0}, {-0.01703680229443038}, {0}, {0.01084977889882799}, {-0.0306318645229155}, {0}, {0}, {-0.008227696232043256}, {0}, {0}, {0}, {-0.02614781770314907}, {0}, {-0.03592537351226328}, {0}, {-0.03214349224820191}, {0}, {0.016790030916185}, {0}, {-0.002364004637185728}, {0}, {0}, {0}, {-0.02478905787452886}, {0}, {0}, {0},
        {-0.0009128403126563339}, {0.0343586871286039}, {0}, {0}, {-0.1919700167439473}, {0}, {0}, {0}, {-0.2485168707035163}, {0}, {0}, {0}, {-0.2016544422716908}, {0}, {0}, {0}, {0}, {0}, {0}, {0}, {0}, {0}, {0}, {0}, {-0.006809161658210162}, {0}, {0.0344708466231199}, {0}, {-0.01251078346175803}, {0}, {0.01010313882986461}, {0},
        {3.880417320814926e-05}, {-0.1905360513085341}, {0.0458845611451165}, {0}, {0.08226839446589596}, {0}, {0}, {0}, {-0.09992761720662692}, {0}, {0.003129963779120482}, {0}, {-0.05632008175489176}, {0}, {0}, {0}, {-0.02749112898740633}, {0}, {0}, {0}, {0}, {0}, {0}, {0}, {0}, {0}, {0}, {0}, {0}, {0}, {0}, {0},
        {-0.00510580649497643}, {0}, {-0.08156622310373648}, {0}, {0.07195195757803631}, {0}, {0}, {0}, {0.01044325253917073}, {-0.149639937046046}, {-0.01636025713264417}, {-0.1032032501236072}, {-0.03887024848926816}, {-0.06021436098368745}, {0}, {0}, {-0.06104637102083643}, {0}, {-0.187025648027222}, {0}, {0}, {0}, {0}, {0}, {-0.003467350272695969}, {0}, {-0.002814969884499744}, {0}, {-0.04985672583870156}, {0}, {0}, {0},
        {-0.005854268702861988}, {0.0867099613617172}, {-0.04395910338841373}, {0.1111651025975198}, {0.009489051861174413}, {-0.01723409657385064}, {-0.008397458102172578}, {-0.02435424410153117}, {0.000384347872240501}, {0.07363120205037041}, {0}, {0}, {-0.05568833872944612}, {-0.06386845902083815}, {0}, {0}, {0.2445012010279326}, {0}, {0}, {0}, {-0.06733466281781574}, {-0.003014991221133697}, {0}, {0}, {0}, {0}, {0}, {0}, {0}, {0}, {0}, {0},
        {-0.002509958690930783}, {0.06179587460577547}, {0}, {0}, {0}, {0}, {0}, {0}, {0.03694382642396013}, {0}, {-0.01720747138203119}, {0}, {0}, {0}, {0}, {0}, {-0.0306100554036819}, {0}, {-0.04285819780653635}, {0}, {0}, {0}, {0}, {0}, {0.003222416999881959}, {0}, {-0.02004421543930231}, {0}, {-0.05216180476107413}, {0}, {-0.007259579668967708}, {0},
        {0.001242572209126417}, {-0.01864662096006571}, {0}, {0}, {0}, {0}, {0}, {0}, {0}, {0}, {0}, {0}, {0}, {0}, {0}, {0}, {-0.1338208521500513}, {0}, {0}, {0}, {-0.05526918860223675}, {0}, {0}, {0}, {-0.08607398174459127}, {0}, {-0.2173011063338845}, {0}, {0.03514645104531423}, {0}, {-0.02635549723046709}, {0},
        {0.0007289142449231507}, {-0.07444385789422056}, {0.1162559229051257}, {0.06372972719954263}, {0.2121954060946452}, {0}, {-0.01596786926138277}, {0}, {-0.07041905931432954}, {0}, {0}, {0}, {0.02754927492660285}, {0}, {0}, {0}, {0.009014982623488483}, {0}, {-0.003859529855460525}, {0}, {0}, {0}, {0}, {0}, {-0.004532450623600266}, {0}, {0}, {0}, {0}, {0}, {0}, {0},
        {-0.0001248829155421273}, {0.07754254415798034}, {0}, {0}, {-0.2089907803912669}, {0}, {0.1456659742907769}, {0}, {0}, {0}, {0}, {0}, {0}, {0}, {-0.02087620748399017}, {0}, {0}, {0}, {0}, {0}, {-0.07931782688621669}, {0}, {0.01041302807225675}, {0}, {0}, {0}, {0}, {0}, {0}, {0}, {-0.0123434910043217}, {0.3662931318742582},
        {0.0037374743671057}, {-0.008897331029957826}, {0}, {0}, {-0.1564589307377459}, {0}, {0.08399199484041947}, {-0.3745124499582138}, {0}, {0}, {0}, {0}, {0}, {0}, {-0.01845738088079557}, {0.1367519485882213}, {0}, {0}, {0}, {0}, {-0.03028635822342958}, {0}, {-0.02222567170150387}, {0}, {0}, {0}, {0}, {0}, {0}, {0}, {-0.003799618693415621}, {0},
        {-0.00170909723367077}, {-0.06180249055994973}, {0.01577750077304218}, {-0.003883855272354571}, {-0.4093008528902273}, {0}, {0}, {0}, {0.004548631882735327}, {0}, {-0.01120269199402245}, {0}, {0}, {0}, {0}, {0}, {0.04429388667932978}, {0}, {-0.001126631814113114}, {0}, {0.005042799322260471}, {0}, {-0.06640537752119798}, {0}, {0}, {0}, {0}, {0}, {0}, {0}, {0}, {0},
        {-0.0005601639469524487}, {-0.0191360067899363}, {0}, {0}, {0}, {0}, {0}, {0}, {0}, {0}, {0}, {0}, {0}, {0}, {0}, {0}, {0.03547925866131912}, {0}, {0}, {0}, {-0.1652089661586361}, {0}, {0}, {0}, {0}, {0}, {0}, {0}, {-0.01741731782018085}, {0}, {0.02194142104194291}, {0},
        {-0.001605022709888288}, {0.07672193739475951}, {0}, {0}, {0}, {0}, {0}, {0}, {0}, {0}, {0}, {0}, {0}, {0}, {0}, {0}, {0.03193603405758271}, {0}, {0}, {0}, {-0.1488863200589367}, {0}, {0}, {0}, {0}, {0}, {0}, {0}, {-0.0280788002231961}, {0}, {0.01824702665890451}, {0.3478897278599394},
        {0.0003776921012317649}, {0}, {-0.0357082535892299}, {0}, {0.02799189854007279}, {0}, {-0.03161080572711582}, {0}, {-0.00848885717158566}, {-0.1802766983114776}, {0}, {0}, {-0.003691151162786665}, {-0.03258065847402059}, {0}, {0}, {-0.02408740529490596}, {0}, {0}, {0}, {-0.03522807009404807}, {0}, {0}, {0}, {-0.02670669787887169}, {-0.04098783377871233}, {0}, {0}, {0.000189968411834437}, {0}, {0}, {0},
        {0.000888594167327256}, {-0.08841394143250007}, {-0.006748713496164652}, {0}, {0.01762010248004567}, {-0.07737461912358705}, {-0.0484199795371951}, {0}, {-0.03130023238557015}, {0}, {-0.01565093999754137}, {0}, {0.00506218746449465}, {0}, {0.005567924261468305}, {0}, {-0.002960007151169178}, {0}, {0.004619005940590105}, {0}, {-0.06969252697569224}, {0}, {0}, {0}, {0}, {0}, {0}, {0}, {0}, {0}, {0}, {0},
        {-0.004295054154787732}, {0}, {0.03093971963731749}, {0}, {0.0163401905297569}, {-0.03282469686783354}, {-0.02022088213336176}, {0}, {0.129330162219509}, {0}, {0}, {0}, {-0.02847674194857292}, {0}, {0}, {0}, {-0.04701678667117056}, {0}, {0.101132638566558}, {0}, {-0.0003786111230459974}, {0}, {-0.00434911656556008}, {0}, {-0.06439913558887139}, {0}, {0}, {0}, {-0.004303331048245173}, {0}, {0}, {0},
        {-0.0002029662059833908}, {-0.09870892364445821}, {0}, {0}, {-0.2045481585842913}, {0}, {0.0266558993439612}, {0}, {-0.1722683160051501}, {0}, {0}, {0}, {-0.1429705801684812}, {0}, {0.01580993371123981}, {0}, {0.02687591684858289}, {0}, {0}, {0}, {0}, {0}, {0}, {0}, {0}, {0}, {0}, {0}, {0}, {0}, {0}, {0},
        {0.0007262667583634517}, {-0.06669218182777012}, {0.01288295359699844}, {0.03923657999459031}, {0}, {0}, {0.01603995511799389}, {0.3483340897847454}, {0}, {0}, {-0.04716883439266242}, {0}, {0}, {0}, {-0.06512298628502618}, {0}, {0.00259302085027861}, {0}, {0.01092911938537458}, {0}, {0}, {0}, {0.002180195549914018}, {0}, {0}, {0}, {0.0008249363139893084}, {0}, {0}, {0}, {-0.02734468876256645}, {0},
        {-0.003890773376812138}, {-0.04587370853999326}, {0}, {0}, {0.01277446379221595}, {-0.006054186632014418}, {-0.02700546713161986}, {0}, {0.7125558408168554}, {0}, {0}, {0}, {0.05341527468848597}, {-0.002408456042981821}, {0}, {0}, {-0.0555514280695391}, {-0.06052137476633503}, {0}, {0}, {0.0009209559073614337}, {-0.009511686711062709}, {0}, {0}, {-0.0005458594124503345}, {-0.0481002091480497}, {0}, {0}, {-0.003124286563934468}, {-0.009876084659689482}, {0}, {0},
        {0.001929630333102146}, {0}, {-0.01766407692154888}, {0}, {-0.03692481256556757}, {0}, {0}, {0}, {0.04051873095063799}, {0}, {0}, {0}, {0.005300639841576062}, {0}, {0}, {0}, {-0.02422541701181783}, {0.1390365062032944}, {-0.01466209338363434}, {0.001471959059003867}, {0.01794727266630438}, {-0.02791614414198453}, {0.03194349935332117}, {-0.0152906120606244}, {0}, {0}, {0}, {0}, {0}, {0}, {0}, {0},
        {0.001406137553937312}, {-0.01487785488498436}, {-0.08262228533978318}, {0}, {0.01532705920970896}, {-0.04272168276523475}, {-0.1393087071563903}, {0}, {-0.01975707485774301}, {-0.002610221965948593}, {-0.05299069768672596}, {0}, {0.001809575267376929}, {-0.003723909739620967}, {-0.05247510508934041}, {-0.02354229507441895}, {-0.008404084815900315}, {-0.01615840109105137}, {0.004448213218025317}, {0}, {-0.04307022775203248}, {-0.06256865544898399}, {0}, {0}, {-0.01005895174124525}, {0.001904486808856178}, {0}, {0}, {0.003613918771209816}, {0.01413253930338809}, {0}, {0},
        {-0.002093829950086342}, {0}, {-0.02232036564438209}, {0}, {-0.04846582222312523}, {0}, {0}, {0}, {0.008710911025197256}, {-0.09095054691684319}, {-0.03050492039360558}, {0}, {-0.04024258472645986}, {0}, {0}, {0}, {-0.0003259831282142604}, {0}, {0}, {0}, {0}, {0}, {0}, {0}, {-0.08316376815501887}, {0}, {0}, {0}, {0}, {0}, {0}, {0},
        {-0.003980436963289941}, {-0.06830958481346777}, {0.01457100777304437}, {-0.004703900269294254}, {0.8880130497467159}, {0}, {0.01878981299640966}, {-0.01714249417114753}, {-0.03041662247168312}, {-0.06558483034134557}, {-0.003257211305009963}, {-0.0116279090543706}, {0.02255723401571303}, {-0.01755353445603411}, {-0.004646939881299591}, {-0.007595034003335716}, {0.03632830353487826}, {0}, {-0.003323653473408472}, {0}, {0.06830143456139834}, {0}, {0.01203186401372643}, {0}, {-0.1076912429847437}, {0}, {0.0008168570735020905}, {0}, {-0.0426177751570356}, {0}, {-0.00287409547616863}, {0},
        {-0.0008518823525521817}, {0}, {0}, {0}, {0}, {0}, {0}, {0}, {0.1171983095476454}, {0}, {-0.1485412647874327}, {0}, {0}, {0}, {-0.02783103349262758}, {0.02515336591511437}, {-0.06083372219395271}, {0}, {0}, {0}, {0}, {0}, {0}, {0}, {0.002631655198478347}, {0}, {-0.09735095475545975}, {0}, {0}, {0}, {-0.003877732047558401}, {0.01745412287095478},
        {0.004093228620197617}, {-0.01662077310555859}, {-0.04499122145694568}, {-0.0005934273659338598}, {-0.0593148696439798}, {0}, {0}, {0}, {0.005853464176984233}, {0}, {0.0001727595049561004}, {0}, {0.003393929094730478}, {0}, {0}, {0}, {-0.02702768616512197}, {0}, {-0.04799807897850128}, {0}, {0}, {0}, {0}, {0}, {-0.007075718275789938}, {0}, {-0.01460723188630372}, {0}, {0.1143788873526683}, {0}, {0}, {0},
        {-2.395541096479799e-06}, {0}, {0}, {0}, {-0.09299070012284069}, {-0.05199587547770537}, {0}, {0}, {0.1703790098489806}, {0}, {-0.00679184258995176}, {0}, {-0.134783929374205}, {0.05290533206854696}, {-0.1642575589708618}, {0.0244321829082106}, {0}, {0}, {0}, {0}, {0}, {0}, {0}, {0}, {0}, {0}, {-0.1554481258139045}, {0}, {0}, {0}, {-0.1169430809090497}, {0.01573670212570536},
        {-0.000341569079542018}, {0.01344270723262428}, {0}, {0}, {0.004261733271260909}, {-0.01136606281819486}, {0}, {0}, {0.01056329701399068}, {-0.03932909419425105}, {0}, {0}, {-0.02003280407602414}, {-0.009931023686777609}, {0}, {0}, {-0.04175510831881979}, {0}, {-0.04616884468514167}, {0}, {0.01795967248782835}, {0}, {0}, {0}, {0.008905862151525593}, {0}, {-0.05106656393067148}, {0}, {-0.007949778187904351}, {0}, {-0.003806429744610348}, {0},
        {-0.000460724253353321}, {-0.03063733334465386}, {-0.01406467646603181}, {0}, {0.01633317409717672}, {-0.02952850632776896}, {-0.03494070988446275}, {0}, {-0.008429784617857563}, {0}, {-0.01389419885925881}, {0}, {-0.04646911809127855}, {0}, {-0.05982481995496002}, {0}, {0.0322443357061401}, {0}, {-0.0230287189181655}, {0}, {0.07487197060270384}, {0}, {-0.0487756215216016}, {0}, {-0.01378942978711854}, {0}, {-0.001389337097343667}, {0}, {-0.02963201207177296}, {0}, {-0.03082687951674212}, {0},
        {0.0007708727340345886}, {-0.111310955386496}, {0.07427476150314588}, {0}, {0}, {0}, {0}, {0}, {-0.08966820800282241}, {0}, {0}, {0}, {0}, {0}, {0}, {0}, {0}, {0}, {0}, {0}, {0}, {0}, {0}, {0}, {-0.009429283963580382}, {0}, {0}, {0}, {0.01577942802576516}, {0}, {0.3312225974418206}, {0},
        {0.003086232874889838}, {-0.04256287530984169}, {-0.03487484117580564}, {0.1033786018568955}, {-0.1285332711377545}, {0}, {0}, {0}, {-0.001648368207319899}, {0}, {-0.002487964994586196}, {0}, {0.9631250611787855}, {0}, {0.6251905967148511}, {0}, {0}, {0}, {0}, {0}, {-0.03785063151141569}, {0}, {-0.0563618725055329}, {0}, {0}, {0}, {0}, {0}, {-0.05051970294966101}, {0}, {0}, {0},
        {0.001234569043390462}, {-0.07847434866755081}, {0.1139730346004647}, {0}, {-0.01558111969023125}, {0}, {-0.01683908608978217}, {0}, {-0.3516590330026698}, {0}, {0}, {0}, {-0.2308650923904195}, {0}, {0}, {0}, {0.0343483146656479}, {0}, {0}, {0}, {0}, {0}, {0}, {0}, {-0.01768698657603158}, {0}, {-0.03255158069464093}, {0}, {0.02356982433976699}, {0}, {-0.01011032144755673}, {0},
        {-0.001637490198347254}, {0.06708833994770035}, {0}, {0}, {0}, {0}, {0}, {0}, {0}, {0}, {0}, {0}, {0}, {0}, {0}, {0}, {0.02749983057050405}, {0}, {0}, {0}, {-0.2125912433583987}, {0}, {0}, {0}, {0}, {0}, {0}, {0}, {-0.02248350320239217}, {0}, {0.01420194126558363}, {0.3144454272238164},
        {-0.01171860675497398}, {-0.05148157762208164}, {0.005301589759189875}, {-0.006056840959368478}, {0.1019735181844004}, {0}, {0}, {0}, {0}, {0}, {0}, {0}, {-0.01130600574726276}, {0}, {0}, {0}, {-0.05446904724118001}, {0}, {0}, {0}, {0.002249452122105808}, {-0.3487305664320844}, {0}, {0}, {0}, {0}, {0}, {0}, {-0.004013067798137533}, {0.1353725862607383}, {0}, {0},
        {-3.817518515457162e-05}, {0}, {0}, {0}, {-0.0849719030510355}, {-0.04608873342345016}, {0}, {0}, {0.1556711239807948}, {0}, {-0.2846453830160086}, {0}, {-0.1232669055335182}, {0.04805214310164518}, {-0.1289540685833066}, {0.00648404476347249}, {0}, {0}, {0}, {0}, {0}, {0}, {0}, {0}, {0}, {0}, {-0.05297386567566463}, {0}, {0}, {0}, {-0.1200797284893446}, {0.02052502323634406},
        {-6.981492344837742e-05}, {0}, {0.03278842764976086}, {0}, {0.01855679414082471}, {0}, {0.02499624976355163}, {0}, {0}, {0}, {0}, {0}, {-0.09919592190527531}, {-0.1133601661825127}, {-0.01409989331271012}, {0.07335838316306034}, {0}, {0}, {-0.09607192437811685}, {0}, {0}, {0}, {0.02064756200233389}, {0}, {0}, {0}, {0}, {0}, {0}, {0}, {-0.1438269404932584}, {0.03390613264139773},
        {0.0006705832498628443}, {-0.01011041115734057}, {0.01551557032496794}, {-0.02767237953455511}, {0.00165214851577618}, {-0.01221611384049377}, {-0.01049792167525138}, {-0.006742816193321486}, {0.00581756423801578}, {-0.02135695232336959}, {0.06948471437393844}, {-0.002075518969252915}, {-0.03641711350112915}, {-0.04764904561825429}, {-0.008497536072215048}, {-0.01872135097701289}, {-0.03381359053244609}, {-0.02918756905208214}, {0}, {0}, {-0.008841693192566143}, {-0.01215196831123372}, {0}, {0}, {-5.81166880682083e-05}, {0.004685985258546642}, {0}, {0}, {-0.001352126126873083}, {0.009424588934725432}, {0}, {0},
        {0.001141724721003252}, {0.08214972306598214}, {0}, {0}, {-0.2009686522989465}, {0}, {0}, {0}, {0}, {0}, {0}, {0}, {-0.04766761078975807}, {0}, {0.009371725850288976}, {0.2019591316581178}, {-0.0293149464497395}, {0}, {0}, {0}, {-0.05231551234291659}, {0}, {0}, {0}, {0}, {0}, {0}, {0}, {0.005771178492998893}, {0}, {0.02448526047155718}, {0},
        {-0.002276982871032276}, {0}, {-0.05611330579662625}, {0}, {0.01124355599165441}, {-0.02815767877504046}, {-0.003797400974591109}, {0}, {0.5615621817417451}, {0}, {0}, {0}, {0.04331694411475573}, {0}, {0.005484840651009913}, {0}, {-0.04884180666474916}, {0}, {-0.05828973916233202}, {0}, {0.000921725462044516}, {0}, {-0.007655940292764184}, {0}, {-0.005870750319589352}, {0}, {-0.01490655227857335}, {0}, {-0.001700275766851727}, {0}, {-0.008472376660701419}, {0},
        {-0.00314270363664614}, {0}, {0.03182483656018422}, {0}, {-0.03216595046600443}, {0}, {0}, {0}, {0.07706680714226105}, {0}, {0.04042155462696465}, {0}, {0}, {0}, {0}, {0}, {0.009878149593635348}, {-0.04951805108668186}, {-0.03669758324172777}, {0.02739505541142691}, {-0.01463418381375693}, {0.003488277411445757}, {-0.02574961215801895}, {-0.002663800152793216}, {-0.008429644999075378}, {0}, {-0.02530044362217979}, {0}, {-0.009800366659941209}, {0}, {0.01693459987809649}, {0},
        {0.0001064047875929474}, {0.07545068351209962}, {0}, {0.007864735056620425}, {-0.06782921784610586}, {0.06591459803934807}, {0}, {-0.03693340434207683}, {0.09761813891472168}, {0}, {0}, {0}, {-0.04629596807437038}, {0}, {0}, {0}, {-0.008467234088128446}, {0}, {0}, {0}, {-0.0469175505476378}, {0}, {0}, {0}, {-0.01242709204313288}, {0}, {0}, {0}, {-0.05601453175011173}, {0}, {0}, {0},
        {0.0004378919975065143}, {-0.06962999347613037}, {0.1100875963723204}, {0}, {0.05620354342593692}, {0}, {0}, {0}, {0}, {0}, {0}, {0}, {0}, {0}, {0}, {0}, {-0.02799602021056339}, {0}, {0}, {0}, {0}, {0}, {0}, {0}, {0.01260913248855294}, {0}, {0}, {0}, {0.2922731768649724}, {0}, {0}, {0},
        {0.001364730458416985}, {-0.04054967121358602}, {-0.01641329075669567}, {0}, {-0.007787607137671728}, {0}, {0.002352773658305785}, {0}, {0.02097401165630263}, {-0.02574773970856311}, {-0.01856335048194865}, {0}, {-0.01040523758829612}, {0}, {0.002248731910456033}, {0}, {-0.03951384361886629}, {0}, {0}, {0}, {-0.0229958986514379}, {0}, {0}, {0}, {-0.0003550201534569271}, {0}, {0}, {0}, {-0.002327113768442416}, {0}, {0}, {0},
        {0.003206141601003423}, {-0.05405097011692339}, {-0.03693843335599543}, {0}, {-0.0309994798647504}, {0}, {0.09477321480027913}, {0}, {-0.06126396940857468}, {0}, {0}, {0}, {-0.05196876357648524}, {0}, {0}, {0}, {-0.001586954504780295}, {0}, {0}, {0}, {-0.00305206576911682}, {0}, {0}, {0}, {0.4237606357410463}, {0}, {0}, {0}, {0.5894633037940965}, {0}, {0}, {0},
        {-0.0003206354599216838}, {-0.02211958766533085}, {0.07825367654857356}, {0}, {0}, {0}, {0}, {0}, {0}, {0}, {0.009352299450437735}, {0}, {0}, {0}, {0}, {0}, {0.05452234532894289}, {0.03355017589620454}, {0.02846001335914298}, {0}, {-0.0453982850993693}, {-0.1039198878643007}, {0.06740337519811956}, {0}, {0}, {0}, {-0.0006316940759092157}, {0.02549490677071374}, {0}, {0}, {-0.009482591243812498}, {-0.059549804804399},
        {0.0001744537856815557}, {-0.01335973051007433}, {-0.06658676460730141}, {0}, {0.01737718879523985}, {-0.03698289877395092}, {-0.03745241128246931}, {-0.01929975866774404}, {-0.008480681594511286}, {-0.008583290051391187}, {0}, {0}, {-0.03891031203195235}, {-0.0515052260391734}, {0.01341488840688122}, {0.001832664566510612}, {-0.02596111262667296}, {0}, {0}, {0}, {-0.02226938571442116}, {0}, {0}, {0}, {0}, {0}, {0}, {0}, {0}, {0}, {0}, {0},
        {3.801614779952098e-06}, {0}, {0}, {0}, {-0.0121745746891222}, {-0.187906349533808}, {0}, {0}, {0}, {0}, {0}, {0}, {0}, {0}, {0}, {0}, {-0.0952042308742146}, {0}, {0}, {0}, {-0.1220906250038023}, {-0.01430491423858816}, {0}, {0}, {0.002376865023407905}, {0}, {-0.1143685423907127}, {0}, {0.010060085919532}, {0.01075730967154562}, {0.05006720107855347}, {-0.1874907369784718},
        {-4.929878517147974e-05}, {-0.07243745446022072}, {0.05109436331202087}, {0}, {0.1619270415936617}, {0}, {0}, {0}, {-0.0706561346959436}, {0}, {0}, {0}, {0.01528620655465998}, {0}, {0}, {0}, {0}, {0}, {0}, {0}, {-0.01803378219264612}, {0}, {0}, {0}, {0}, {0}, {0}, {0}, {-0.004082281834971353}, {0}, {0.2774380932006656}, {0},
        {0.001431432725053387}, {-0.005691134976586192}, {-0.04156824466275846}, {0}, {0}, {0}, {0}, {0}, {0}, {0}, {0}, {0}, {0}, {0}, {0}, {0}, {0.08732222685079807}, {0}, {0.00084409675092819}, {-0.3197788213009173}, {0}, {0}, {0}, {0}, {-0.06937630248096018}, {0}, {-0.04430086538082086}, {0}, {0.008955864599473352}, {0}, {0.01056925208622705}, {0.1278983098168729},
        {0.00020054475751075}, {-0.02683635452620224}, {-0.06499485343641742}, {0.01181213981481458}, {-0.009436775691053532}, {0.01022022203218566}, {0}, {0}, {0.01443069001124717}, {-0.02592729534001514}, {-0.03533136249356911}, {0.02508693058092811}, {-0.02619319247841713}, {-0.005744128779392409}, {0.004814415648482075}, {-0.002057099388404727}, {0.0003158287664397228}, {-0.03329056709408747}, {0}, {0}, {0.009684265343906703}, {0}, {0}, {0}, {-0.05729856925773166}, {-0.01653479839942984}, {0}, {0}, {0}, {0}, {0}, {0},
        {-0.0003921682388983478}, {-0.03059396792109674}, {0.07039251265953825}, {0}, {0}, {0}, {0.005141867868828527}, {-0.01206602099243162}, {-0.06197004100310844}, {-0.1071138958458098}, {0.0529652231442236}, {0}, {0}, {0}, {-0.02459544551734746}, {-0.07567507464412657}, {0.04515993446134365}, {0.04230748983786111}, {0}, {0}, {0}, {0}, {0}, {0}, {-0.05228567966298674}, {0}, {0}, {0}, {0}, {0}, {0}, {0},
        {8.434666599896572e-05}, {0}, {0.04117744394470319}, {0}, {0}, {0}, {0}, {0}, {-0.1198557659278835}, {0}, {-0.1396243102923234}, {0}, {0.01661330415842273}, {-0.03495538782157627}, {0.01608614770042035}, {0.1604014500624091}, {0}, {0}, {-0.1223451541590827}, {0}, {0}, {0}, {0}, {0}, {0}, {0}, {-0.08686819622328043}, {0}, {0}, {0}, {0.002787253839895755}, {0.1201504364651061},
        {-5.426241895152864e-05}, {-0.04423215379994885}, {0}, {0}, {0}, {0}, {0}, {0}, {-0.04238583804889129}, {0.02762856198646377}, {-0.04605077763821035}, {0.4565593044062732}, {0}, {0}, {-0.08322541590320194}, {-0.09388524631175578}, {0.001730107044409871}, {0}, {0}, {0}, {0}, {0}, {0}, {0}, {0.00135159280554887}, {0}, {-0.01248605657986931}, {0}, {0}, {0}, {-0.007203013376060776}, {0},
        {-0.003370347311041434}, {0.01542295100678493}, {0.09744163043074587}, {0.03735449709492245}, {0.005879467040052266}, {-0.03209718037311009}, {-0.01527245254521579}, {-0.005449206104482343}, {-0.1469069421296334}, {0}, {0.04234746711083099}, {0}, {-0.007002656111971073}, {0}, {-0.006065676114649443}, {0}, {0.1790016048914392}, {0}, {0}, {0}, {-0.07152159229760537}, {0}, {-0.002695842076514787}, {0}, {0}, {0}, {0}, {0}, {0}, {0}, {0}, {0},
        {-0.0005091888221445592}, {0}, {-0.02307048657853885}, {0}, {0.01335339900961468}, {0}, {0.01153428844214257}, {0}, {0.3947321052622256}, {0}, {0.0154642662166268}, {0}, {0.04457419425574442}, {0}, {-0.01536785267525358}, {0}, {-0.04948888626576191}, {0}, {-0.04527940387414153}, {0}, {0.006192724324162895}, {-0.02296259764907204}, {-0.005092739320064482}, {0}, {-0.01069373692365}, {0}, {-0.05092589796770807}, {0}, {-0.001402146447321476}, {0}, {-0.002354172362819619}, {0},
        {-0.003556113966687475}, {-0.0304701495720855}, {0}, {0}, {-0.1055844976241577}, {-0.03634737173906846}, {0}, {0}, {0.01406361909133121}, {-0.002213163140665937}, {0.00876871705187594}, {-0.03985815020685343}, {-0.01595426299243319}, {-0.003670845931995465}, {0.001056247348167017}, {0.003960839024751739}, {0.01955351609221898}, {0.02143882509119172}, {0}, {0}, {0}, {0}, {0}, {0}, {-0.00445536999819154}, {0.002436986323244348}, {-0.00554156609508457}, {-0.03254701177327615}, {0}, {0}, {0}, {0},
        {-0.001176749873610898}, {0}, {0}, {-0.04574273143331092}, {0}, {0}, {0}, {0}, {-0.03652893465920234}, {0}, {0}, {-0.01041325283673135}, {0}, {0}, {0}, {0}, {0.006345689113842312}, {0}, {0.03866576957689604}, {-0.0140943906658202}, {-0.02968172374945833}, {0}, {0}, {0.02310798007967547}, {-0.003534349297746828}, {0}, {0.03524675507140682}, {-0.01029183541363286}, {0}, {0}, {0}, {0},
        {2.92452243860857e-05}, {-0.0489854976424848}, {-0.09252551701289241}, {0}, {0}, {0}, {0}, {0}, {0.03302547893786182}, {0}, {0}, {0}, {0}, {0}, {0}, {0}, {0.00781410289368983}, {0}, {0}, {0}, {-0.02948489753804166}, {0}, {0}, {0}, {-0.07192717664497035}, {0}, {0}, {0}, {-0.1960582284547633}, {0}, {0}, {0},
        {0.00364809944033882}, {0}, {-0.03725353083051178}, {0}, {-0.02123267563062084}, {0}, {0}, {0}, {-0.008812494402181719}, {0}, {-0.04584642307030073}, {0}, {0}, {0}, {0}, {0}, {-0.01140126030956392}, {-0.0727172016780433}, {0.008613552804939391}, {0}, {0}, {0}, {0}, {0}, {0.004378760407764065}, {-0.03528766628668809}, {-0.01809138576785757}, {0}, {0}, {0}, {0}, {0},
        {0.0009238488631120474}, {0.06065190073981613}, {0}, {0}, {-0.1979598553431738}, {0}, {0}, {0}, {0}, {0}, {0}, {0}, {-0.02295179567415028}, {0}, {0.009344123547436429}, {0.170908800413561}, {-0.026230776293906}, {0}, {0}, {0}, {-0.03342329094473748}, {0}, {0}, {0}, {0}, {0}, {0}, {0}, {0.02609975450076394}, {0}, {0.02298858213705605}, {0},
        {-0.0002748364396859637}, {0.07898205959306175}, {0.1177310176524638}, {-0.04859718549163505}, {0}, {0}, {0.05918479185840631}, {0}, {-0.05213399203966904}, {-0.03106181210980283}, {0.07885615480004879}, {0}, {0}, {0}, {-0.005026129535752026}, {0}, {0}, {0}, {0.04743529137239631}, {0}, {0}, {0}, {-0.01090736554833594}, {0}, {0}, {0}, {0.05816069021948293}, {0}, {0}, {0}, {-0.01852290511365632}, {0},
        {8.950991027789756e-05}, {0}, {-0.005245857735087765}, {0}, {0}, {0}, {0}, {0}, {-0.1210204794254632}, {0}, {-0.1317344545373685}, {0}, {0.01297857795652198}, {-0.03447081401340308}, {0.007532373188479579}, {0.1742719557222714}, {0}, {0}, {-0.1878851220131515}, {0}, {0}, {0}, {0}, {0}, {0}, {0}, {-0.0401080256752548}, {0}, {0}, {0}, {0.01980498019684966}, {0.004746441231130987},
        {-0.003857264113794995}, {-0.03682654551348005}, {0}, {0}, {-0.1018244509149209}, {-0.02745610077914453}, {0}, {0}, {0.01108324323348687}, {-0.004258996055799599}, {0.008757097738226281}, {-0.03719009135884017}, {-0.0142169491741233}, {-0.005086768610943314}, {0.003112855289272795}, {0.006414850892704362}, {0.01421100333137941}, {0.02016073628082339}, {0}, {0}, {0}, {0}, {0}, {0}, {-0.004006975535660344}, {-0.001877106645133444}, {-0.0003725871870902408}, {-0.02544257870107717}, {0}, {0}, {0}, {0},
        {-0.0002094857007523717}, {-0.03348041613932531}, {-0.009942177480534222}, {0}, {-0.02765772563728067}, {0}, {-0.01302408749612912}, {0}, {0.01328076033777157}, {-0.03226828635305297}, {-0.01755095949778223}, {0}, {-0.00576142956858784}, {0}, {0.01810402720889964}, {0}, {0.001330722205658374}, {0}, {-0.0008771901338157701}, {0}, {-0.0127954455503533}, {0}, {0.01756779622158354}, {0}, {-0.008161060283897846}, {0}, {-0.01493380499874533}, {0}, {0.001292256912683788}, {0}, {-0.01307128526829381}, {0},
        {-0.003374957683474194}, {0}, {-0.04032588984345466}, {0}, {-0.3624946466836938}, {0}, {0}, {0}, {0.06800555634717845}, {0}, {0.01688305282253236}, {0}, {0.01517037321777879}, {0}, {-0.03168880245872892}, {0}, {0.002105907306572383}, {-0.04446658943019937}, {0.04557917400664221}, {0}, {0}, {0}, {0}, {0}, {0.02636507807631986}, {0}, {0.01216254558487857}, {0}, {-0.0233277801710427}, {0}, {-0.0888350219143384}, {0},
        {-0.0003257615814623608}, {0.1388238477506578}, {-0.1153938289532292}, {0.04154160898678069}, {0}, {0}, {0.002131651737095788}, {-0.02543652073763148}, {0}, {-0.1095505762419091}, {0}, {-0.08058284641492348}, {0}, {0}, {0}, {-0.03784483988935657}, {0}, {0}, {0}, {0}, {0}, {0}, {0}, {0}, {0}, {0.002161740251500879}, {0}, {0.003002497918199687}, {0}, {0}, {0}, {0.0123249877949497},
        {0.0002339912665216345}, {-0.07082754706649033}, {0.008307224735580388}, {0}, {-0.04664300135704255}, {0}, {0.07253556480522518}, {0}, {0.006099931448025619}, {-0.1791842759294723}, {-0.02548465272819363}, {-0.03335195423098659}, {-0.007999485230390586}, {0}, {-0.002295464543299892}, {0}, {-0.03296530412970598}, {0.009225097660073848}, {0}, {0}, {0}, {0}, {0}, {0}, {-0.0006145699557875171}, {-0.02326578686850087}, {0.001087071362459689}, {-0.05005466351376814}, {0}, {0}, {0}, {0},
        {0.003601602741352536}, {-0.02046529368640165}, {-0.00498996008877856}, {0}, {-0.004578524059014412}, {0}, {-0.2937000846650378}, {0}, {0}, {0}, {0}, {0}, {0}, {0}, {0}, {0}, {-0.05379868069274317}, {0}, {0}, {0}, {-0.03394325446919118}, {0}, {0}, {0}, {0.00853081038002124}, {0}, {0}, {0}, {0.008630172817550444}, {0}, {0.1219550928969381}, {0},
        {0.00124451124087401}, {0}, {0}, {0}, {-0.007480332363109329}, {0}, {0}, {0}, {0.01746838833723834}, {-0.04128461694104981}, {-0.04563254586530086}, {0}, {-0.02951327240152643}, {0}, {0.003268962389108013}, {0}, {-0.004965305884181378}, {0}, {-0.007787853290960185}, {0}, {-0.007844755604069831}, {0}, {0}, {0}, {-0.003174857054213406}, {0}, {-0.02042565809844682}, {0}, {-0.04066153082378792}, {0}, {0.002368577109044105}, {0},
        {-4.633932058284258e-05}, {0}, {0}, {0}, {0}, {0}, {0}, {0}, {-0.04374905026450181}, {0}, {-0.1219016635121702}, {0}, {0}, {0}, {0}, {0}, {0.0006084529642368248}, {0}, {0}, {0}, {-0.0686212694130877}, {-0.08393610460997145}, {0}, {0}, {0.01107181760900831}, {0}, {0.05107839226967867}, {0}, {0.02187128876472199}, {0.1110128568068575}, {-0.2157293409653069}, {0.0078112908330026},
        {0.0007442729597995449}, {-0.03914352033756473}, {0}, {0}, {0}, {0}, {0}, {0}, {0.01348306231805667}, {0.07090290464089803}, {0}, {0}, {0}, {0}, {0}, {0}, {-0.02993986898537322}, {0}, {-0.0197438865233751}, {0}, {0}, {0}, {-0.03065739311865781}, {0}, {-0.003554032104575808}, {0.01038026039449223}, {-0.01206190263319794}, {0.4308662144074217}, {0}, {0}, {-0.005826515192058067}, {-0.08985262695414017},
        {-0.0002409070802909236}, {0.03894953892567533}, {0}, {0}, {-0.1123814002111385}, {0}, {0.0447663530063229}, {0}, {0}, {0}, {0}, {0}, {0.002158345653073516}, {0}, {-0.02266184749090282}, {0}, {0}, {0}, {0}, {0}, {0}, {0}, {-0.007220352686261878}, {0.2571307563118834}, {0}, {0}, {0}, {0}, {0}, {0}, {0.005268331371483206}, {0},
        {-0.0002214294330558441}, {-0.02113966413475347}, {-0.0081793974714988}, {-0.00940631191802405}, {0.005912509870566935}, {-0.05843549879004274}, {-0.02791450864453961}, {-0.0146511927997302}, {-0.3389612423441601}, {0}, {0}, {0}, {0}, {0}, {0}, {0}, {0.02546836077916104}, {0}, {-0.02299229112875343}, {0.005555683171364563}, {0.02176918306893514}, {0}, {-0.003120304104922336}, {0}, {0.004408653355337928}, {0}, {0.005134705098746131}, {0}, {-0.04842120994663401}, {0}, {0}, {0},
        {-0.001363877691773427}, {0}, {0}, {0}, {-0.05033867806021598}, {0}, {0}, {0}, {0.007799126275422185}, {-0.01889379169824781}, {0}, {0}, {-0.002420043397447335}, {0}, {0}, {0}, {0.1267920578429836}, {0}, {0}, {0}, {-0.05135978659135864}, {0}, {0}, {0}, {0.0002406071459170971}, {0}, {-0.1009148213653415}, {0}, {-0.003691172944203232}, {0}, {0}, {0},
        {0.0009589871028512149}, {0}, {0.04059426255760107}, {0}, {-0.04078572122045598}, {0}, {0}, {0}, {0.007482518259741461}, {-0.03354732096828312}, {-0.02435842485407201}, {0.03262555787209151}, {-0.003255819971389115}, {0.02395497524160588}, {0.01628241130130086}, {0.01601089649098741}, {-0.03520997233610145}, {0}, {0}, {0}, {-0.03858125482614908}, {0}, {0}, {0}, {0.001100340974722001}, {-0.02295690795639332}, {-0.02428303018614421}, {-0.01352123459109879}, {-0.007457076991750394}, {-0.001583682962030026}, {0.00861716324351401}, {0},
        {-0.0007348250151849528}, {0}, {-0.03509609354855172}, {0}, {0.02645776336749065}, {0}, {0}, {0}, {0.03612582517591589}, {0}, {0}, {0}, {0}, {0}, {0}, {0}, {0.01117604475864736}, {0.1672593624699019}, {0.003371640890526409}, {0.03103845624001403}, {0}, {0}, {-0.264722003680329}, {0}, {0}, {0}, {0.2443055343062773}, {0}, {0}, {0}, {0}, {0},
        {-2.797291122793861e-05}, {-0.02054016922936734}, {0.1103255819995209}, {0}, {0}, {0}, {0.0563705270908285}, {0.001183267335923165}, {-0.0405399481701607}, {-0.07597167509682924}, {0.07085062499836293}, {0}, {0}, {0}, {-0.008185219091064178}, {0.001683037201537661}, {0}, {0}, {0.04308537147605454}, {0}, {0}, {0}, {-0.009252584992897661}, {-0.003479558113650947}, {0}, {0}, {0.05067649200917985}, {0}, {0}, {0}, {-0.007848786823050439}, {-0.05833543277265053},
        {-3.589389177734036e-05}, {0}, {0}, {0}, {-0.0393323896880776}, {-0.112078670119312}, {0}, {0}, {0.01470351097588997}, {0}, {0}, {0}, {0.015300834271941}, {0.02490871438170763}, {0}, {0}, {0}, {0}, {0}, {0}, {0}, {0}, {0}, {0}, {-0.06512814761066707}, {0}, {-0.1017760036019969}, {0}, {-0.08570889158368912}, {-0.05220056355858201}, {0.03728690441079562}, {-0.1509833248368593},
        {-0.002342660848798241}, {0}, {0}, {0}, {0.04106360755967833}, {0}, {0}, {0}, {0.04149828070950364}, {0}, {0}, {0}, {0.06030313932413113}, {0}, {0}, {0}, {0.006878471899605953}, {0}, {-0.02503038056478159}, {0}, {-0.007475833571405655}, {0}, {0}, {0}, {-0.01079586178478244}, {-0.05097163207248257}, {0}, {0}, {0.005798843882159604}, {-0.02133448994019984}, {0}, {0},
        {8.24417450097188e-05}, {0}, {-0.006232555005930391}, {0}, {0.08191972915901989}, {0}, {0}, {0}, {0.02725039809137382}, {0}, {-0.01416044404862661}, {0}, {0.03800064662568567}, {0}, {-0.0003510341288507113}, {0}, {0.0001393119049734569}, {-0.09924529977562291}, {-0.000322505174580023}, {0.01184515687329255}, {-0.02363592437748425}, {0.01183235567896193}, {0.002383074455456006}, {0}, {0.002598790887182248}, {-0.06249649927613674}, {-0.03433918183261578}, {0}, {-0.003629565312268138}, {-0.02733566879808467}, {0.009430399182364338}, {0},
        {-1.47692796600801e-05}, {0}, {0.1461694893775463}, {0}, {0}, {0}, {0}, {0}, {0}, {0}, {-0.04349028756373223}, {0}, {0}, {0}, {0}, {0}, {-0.05942533264643921}, {0}, {-0.1045702548183716}, {0}, {-0.02807334043930074}, {-0.07449320050002953}, {0.02556007520239816}, {0.1354039949417948}, {0}, {0}, {-0.0735717236481407}, {0}, {0}, {0}, {0.006806196515698825}, {0.1068329619108846},
        {-0.001095916439240384}, {0}, {0}, {0.00698063115768089}, {0}, {0}, {0}, {0}, {0}, {0}, {0}, {0}, {0}, {0}, {0}, {0}, {0.02530069341668313}, {0}, {0.2934669523429489}, {-0.05292605823242928}, {0}, {0}, {0}, {0}, {-0.04610554345836423}, {0}, {0}, {-0.03079133714573224}, {0.005192884813584842}, {0}, {0.02074565938268076}, {0.01636834109486403},
        {0.0007448073794287178}, {-0.05839808022970512}, {-0.0109499023333072}, {0}, {0.01605921123461766}, {0}, {0.02707841879407626}, {0}, {0.04481800881082279}, {0}, {0.015803776357172}, {0}, {0.003370739120703076}, {0}, {0.02728305372457594}, {0}, {0.004345894896815235}, {0}, {-0.02115252412661679}, {0}, {0.02213892929475684}, {0}, {0.02095892178964286}, {0}, {0.001480911864073785}, {0}, {-0.007742767423880531}, {0}, {-0.01614109313303468}, {0}, {0.00202948644863405}, {0},
        {0.000289023190200549}, {0}, {-0.03482340304372764}, {0}, {-0.01821920694400678}, {0}, {0}, {0}, {0}, {0}, {0}, {0}, {-0.02849375778056324}, {0}, {0}, {0}, {0.002540193095624644}, {-0.03638197325211925}, {0.02327687570469108}, {0}, {-0.01073534389918693}, {-0.0137780771375821}, {0.4062847691519239}, {0}, {0}, {0}, {0}, {0}, {-0.002304190194025339}, {-0.02081332907559934}, {-0.08623088466815339}, {0},
        {-0.003391890706611777}, {-0.03503865837861524}, {-0.3155567893354359}, {0}, {0.0578749871767533}, {0.01569107652666172}, {0.01318924114473409}, {-0.02643093317596144}, {0.00168662718657286}, {0.04224495263792557}, {0}, {0}, {0.02074537691784565}, {0.01089285180724906}, {-0.01951595040613915}, {-0.07591062999023936}, {0.1555721676674341}, {0}, {0}, {0}, {0}, {0}, {0}, {0}, {-0.06826554033628901}, {0}, {0}, {0}, {0}, {0}, {0}, {0},
        {0.0001992899951211615}, {0.1543321269388814}, {-0.001162069820567945}, {0.03216308681170817}, {0.02335570906314319}, {0}, {-0.2932097938161392}, {0}, {0.02609493378621386}, {0}, {0.2320654589340642}, {0}, {0}, {0}, {0}, {0}, {-0.02252378886255221}, {0}, {0.01482581954900044}, {-0.02503701986960153}, {0}, {0}, {0.0155585381166925}, {0}, {0}, {0}, {0}, {0}, {0}, {0}, {0}, {0},
        {0.00244857053316689}, {-0.03067527699665821}, {-0.03590561996636593}, {0}, {-0.003906860884386494}, {-0.01708431829399162}, {0}, {0}, {-0.008731426464917716}, {0}, {0}, {0}, {-0.2731666550086285}, {0}, {0}, {0}, {0.006822497682991516}, {0}, {0}, {0}, {0}, {0}, {0}, {0}, {0.006421255726768937}, {0}, {0}, {0}, {0.1170457307255256}, {0}, {0}, {0},
        {-0.0007905420876699399}, {0}, {0}, {0}, {0.005277107894755624}, {0}, {0}, {0}, {0.8746018808535028}, {0}, {-0.1040921823306179}, {0}, {0.009096207548514939}, {0}, {-0.003911324063181341}, {0}, {-0.05358872134337755}, {0}, {0}, {0}, {0.0001166104953470999}, {-0.05985847845278037}, {0}, {0}, {-0.1510356275111951}, {0}, {-0.0518678100873644}, {0}, {-0.001266995793707239}, {0.00914252321993303}, {-0.002754230344765772}, {-0.02762073021738929},
        {-0.001623007728762567}, {0}, {0.05280556121904096}, {0}, {0.0585729401772402}, {0}, {0.0540193244915237}, {0}, {0.008875233577357838}, {-0.01695405733862062}, {-0.007936997853738519}, {0}, {-0.01590836312946588}, {0}, {0.004677110493274249}, {0}, {-0.1092118948903854}, {0}, {0}, {0}, {0.04078790067630336}, {0}, {0}, {0}, {-0.005993108663008313}, {0}, {0}, {0}, {-0.002498306668708619}, {0}, {0}, {0},
        {0.002707758185495438}, {-0.01030833848545269}, {-0.0142769376369386}, {0.01467576308405074}, {0}, {0}, {0}, {0}, {0.01729681614642308}, {-0.005545175817544184}, {0.03289876257002428}, {0.01899008475191504}, {-0.002540349912222467}, {-0.01491157935078721}, {0.003566015209578826}, {-0.003242472477377465}, {-0.05011037906451404}, {0}, {0}, {0}, {0}, {0}, {0}, {0}, {0.8027095019954797}, {0}, {0}, {0}, {-0.06846456410421492}, {0}, {0}, {0},
        {7.492504394497394e-05}, {0}, {0.04713684608915442}, {0}, {0}, {0}, {0}, {0}, {-0.1026763171286822}, {0}, {-0.1222103340063834}, {0}, {0.01142708906502183}, {-0.03722292267799609}, {0.00908590665657771}, {0.1233400126732362}, {0}, {0}, {-0.08969122297198254}, {0}, {0}, {0}, {0}, {0}, {0}, {0}, {-0.09177841456134464}, {0}, {0}, {0}, {0.0001112355660359854}, {0.08604533510463371},
        {0.00163879865822502}, {-0.0003309968029657631}, {-0.1491147178777585}, {0}, {-0.0004761650973944993}, {-0.02547949270128648}, {0.04480835448492224}, {0.04966904787012915}, {0.02050340749570454}, {0}, {0.341900286053052}, {0}, {0}, {0}, {0}, {0}, {-0.0008483901358666933}, {0}, {-0.08560380278010464}, {0}, {0}, {0}, {0}, {0}, {-0.006219893595068125}, {0}, {-0.07300694820303436}, {0}, {0}, {0}, {0}, {0},
        {0.002372109392886766}, {-0.01475098889241682}, {-0.24871126469806}, {0}, {-0.007762315600387906}, {-0.01492048541113769}, {0.003125917281113604}, {0.03272904986396977}, {-0.1380517750550824}, {0}, {0}, {0}, {0}, {0}, {0.04351575191535511}, {0}, {-0.001955075706939167}, {0.01379269264704322}, {0}, {0}, {0}, {0}, {0}, {0}, {0.05687946219367637}, {0}, {0}, {0}, {0}, {0}, {0}, {0},
        {6.377543806756325e-05}, {-0.03458701414389997}, {-0.06579789860880335}, {0}, {-0.09550551757366314}, {0}, {0}, {0}, {0}, {0}, {0}, {0}, {0}, {0}, {0}, {0}, {0.006409819758526295}, {0}, {0}, {0}, {0.09987216670867519}, {0}, {0}, {0}, {0.009038277115785342}, {0}, {0}, {0}, {-0.1589535221134537}, {0}, {0}, {0},
        {-0.001431815931506104}, {-0.05116742889005278}, {0.008019155468049471}, {-0.005739571825842459}, {-0.05662453363589368}, {-0.05773464837559868}, {0.002041427176909763}, {-0.01088836311484744}, {0.6191451570979326}, {-0.03680365996845056}, {-0.003933025263346478}, {-0.0008774569474047458}, {-0.03358542402286774}, {-0.01995470059249967}, {0.002762622008946202}, {-0.00379467508500815}, {0}, {0}, {0}, {0}, {0}, {0}, {0}, {0}, {-0.009902600299675671}, {0.002422926533972125}, {0.002496920340129629}, {0.001901505306304233}, {-0.1091865884833519}, {0.02038380074938241}, {-0.008558812165439394}, {-0.01016236664353305},
        {-0.0007217451879490577}, {-0.02732685583561796}, {0.006751880088559533}, {0}, {0}, {0}, {0}, {0}, {0}, {0}, {0}, {0}, {0}, {0}, {0}, {0}, {0.02469193314545157}, {0}, {-0.04657238285802354}, {0}, {0}, {0}, {0}, {0}, {-0.04140409430135667}, {0}, {-0.02817903280328519}, {0}, {0.003718277244630414}, {0}, {0.01322106371275859}, {0},
        {-0.0003606518999495898}, {0.1040183502842426}, {0}, {0.06327547002823776}, {0}, {0}, {0}, {0}, {0}, {0.03616131507981692}, {0}, {-0.01182774148725265}, {0}, {0}, {0}, {0}, {0.03875197889451945}, {-0.001195069618714247}, {0}, {0.009948707224701467}, {-0.03979203386997929}, {0.03657181876371941}, {0}, {-0.01095154200238108}, {0}, {0.01847733804365495}, {0}, {0.006872138327657093}, {0}, {0.04511138020816487}, {0}, {-0.02057021330420974},
        {0.0005646650238827847}, {-0.03938947190731014}, {-0.006267368693088138}, {0}, {-0.03708875504451546}, {0}, {-0.09517049619922505}, {0}, {0}, {0}, {0}, {0}, {0.03409456454322463}, {0}, {0.0133812975251681}, {0}, {0}, {0}, {0}, {0}, {0}, {0}, {0}, {0}, {0}, {0}, {0}, {0}, {-0.004386667209003802}, {-0.05389584037241715}, {-0.04117545232589083}, {0},
        {-0.0008842768356988113}, {0}, {0.005978276398081069}, {0}, {0}, {0}, {0}, {0}, {0}, {0}, {0}, {0}, {0}, {0}, {0}, {0}, {0.03608431619935367}, {0}, {-0.01942910400482108}, {0}, {0}, {0}, {0}, {0}, {-0.01443898583114937}, {0}, {0.009524016678600665}, {0}, {0.03346550382529057}, {0.09590918088121053}, {-0.03941556393925175}, {-0.00210813485919996},
        {-0.001556664572170483}, {0.0008385592193690962}, {-0.009570367942517763}, {0}, {0.004288213677510954}, {-0.02205182675416455}, {-0.03374436355242646}, {0}, {-0.2944837963299152}, {0}, {0}, {0}, {0}, {0}, {0}, {0}, {0.03925266246954393}, {0}, {0.008350959609236376}, {0}, {0.01592466013381627}, {0}, {0}, {0}, {0.006745084425934857}, {0}, {0}, {0}, {-0.03080540034589956}, {0}, {0}, {0}
    };
    double Scale = 1;
    double Biases[1] = {19.03813553};
    unsigned int Dimension = 1;
} CatboostModelStatic;

/* Model applicator */
std::vector<double> ApplyCatboostModelMulti(
    const std::vector<float>& floatFeatures
) {
    const struct CatboostModel& model = CatboostModelStatic;

    /* Binarize features */
    std::vector<unsigned char> binaryFeatures(model.BinaryFeatureCount);
    unsigned int binFeatureIndex = 0;
    for (unsigned int i = 0; i < model.FloatFeatureCount; ++i) {
        for(unsigned int j = 0; j < model.BorderCounts[i]; ++j) {
            binaryFeatures[binFeatureIndex] = (unsigned char)(floatFeatures[i] > model.Borders[binFeatureIndex]);
            ++binFeatureIndex;
        }
    }

    /* Extract and sum values from trees */
    std::vector<double> results(model.Dimension, 0.0);
    const unsigned int* treeSplitsPtr = model.TreeSplits;
    const auto* leafValuesForCurrentTreePtr = model.LeafValues;
    for (unsigned int treeId = 0; treeId < model.TreeCount; ++treeId) {
        const unsigned int currentTreeDepth = model.TreeDepth[treeId];
        unsigned int index = 0;
        for (unsigned int depth = 0; depth < currentTreeDepth; ++depth) {
            index |= (binaryFeatures[treeSplitsPtr[depth]] << depth);
        }

        for (unsigned int resultIndex = 0; resultIndex < model.Dimension; resultIndex++) {
            results[resultIndex] += leafValuesForCurrentTreePtr[index][resultIndex];
        }

        treeSplitsPtr += currentTreeDepth;
        leafValuesForCurrentTreePtr += 1 << currentTreeDepth;
    }

    std::vector<double> finalResults(model.Dimension);
    for (unsigned int resultId = 0; resultId < model.Dimension; resultId++) {
        finalResults[resultId] = model.Scale * results[resultId] + model.Biases[resultId];
    }
    return finalResults;
}

double ApplyCatboostModel(
    const std::vector<float>& floatFeatures
) {
    return ApplyCatboostModelMulti(floatFeatures)[0];
}

// Also emit the API with catFeatures, for uniformity
std::vector<double> ApplyCatboostModelMulti(
    const std::vector<float>& floatFeatures,
    const std::vector<std::string>&
) {
    return ApplyCatboostModelMulti(floatFeatures);
}

double ApplyCatboostModel(
    const std::vector<float>& floatFeatures,
    const std::vector<std::string>&
) {
    return ApplyCatboostModelMulti(floatFeatures)[0];
}
